{"learner":{"attributes":{"scikit_learn":"{\"_estimator_type\": \"classifier\"}"},"feature_names":["step","amount","oldbalanceOrg","newbalanceOrig","oldbalanceDest","newbalanceDest","orig_balance_change","dest_balance_change","orig_balance_error","dest_balance_error","amount_to_orig_balance","amount_to_dest_balance","origin_zero_after","destination_zero_before","is_transfer","is_cash_out","hour","day"],"feature_types":["int","float","float","float","float","float","float","float","float","float","float","float","int","int","int","int","int","int"],"gradient_booster":{"model":{"cats":{"enc":[],"feature_segments":[],"sorted_idx":[]},"gbtree_model_param":{"num_parallel_tree":"1","num_trees":"500"},"iteration_indptr":[0,1,2,3,4,5,6,7,8,9,10,11,12,13,14,15,16,17,18,19,20,21,22,23,24,25,26,27,28,29,30,31,32,33,34,35,36,37,38,39,40,41,42,43,44,45,46,47,48,49,50,51,52,53,54,55,56,57,58,59,60,61,62,63,64,65,66,67,68,69,70,71,72,73,74,75,76,77,78,79,80,81,82,83,84,85,86,87,88,89,90,91,92,93,94,95,96,97,98,99,100,101,102,103,104,105,106,107,108,109,110,111,112,113,114,115,116,117,118,119,120,121,122,123,124,125,126,127,128,129,130,131,132,133,134,135,136,137,138,139,140,141,142,143,144,145,146,147,148,149,150,151,152,153,154,155,156,157,158,159,160,161,162,163,164,165,166,167,168,169,170,171,172,173,174,175,176,177,178,179,180,181,182,183,184,185,186,187,188,189,190,191,192,193,194,195,196,197,198,199,200,201,202,203,204,205,206,207,208,209,210,211,212,213,214,215,216,217,218,219,220,221,222,223,224,225,226,227,228,229,230,231,232,233,234,235,236,237,238,239,240,241,242,243,244,245,246,247,248,249,250,251,252,253,254,255,256,257,258,259,260,261,262,263,264,265,266,267,268,269,270,271,272,273,274,275,276,277,278,279,280,281,282,283,284,285,286,287,288,289,290,291,292,293,294,295,296,297,298,299,300,301,302,303,304,305,306,307,308,309,310,311,312,313,314,315,316,317,318,319,320,321,322,323,324,325,326,327,328,329,330,331,332,333,334,335,336,337,338,339,340,341,342,343,344,345,346,347,348,349,350,351,352,353,354,355,356,357,358,359,360,361,362,363,364,365,366,367,368,369,370,371,372,373,374,375,376,377,378,379,380,381,382,383,384,385,386,387,388,389,390,391,392,393,394,395,396,397,398,399,400,401,402,403,404,405,406,407,408,409,410,411,412,413,414,415,416,417,418,419,420,421,422,423,424,425,426,427,428,429,430,431,432,433,434,435,436,437,438,439,440,441,442,443,444,445,446,447,448,449,450,451,452,453,454,455,456,457,458,459,460,461,462,463,464,465,466,467,468,469,470,471,472,473,474,475,476,477,478,479,480,481,482,483,484,485,486,487,488,489,490,491,492,493,494,495,496,497,498,499,500],"tree_info":[0,0,0,0,0,0,0,0,0,0,0,0,0,0,0,0,0,0,0,0,0,0,0,0,0,0,0,0,0,0,0,0,0,0,0,0,0,0,0,0,0,0,0,0,0,0,0,0,0,0,0,0,0,0,0,0,0,0,0,0,0,0,0,0,0,0,0,0,0,0,0,0,0,0,0,0,0,0,0,0,0,0,0,0,0,0,0,0,0,0,0,0,0,0,0,0,0,0,0,0,0,0,0,0,0,0,0,0,0,0,0,0,0,0,0,0,0,0,0,0,0,0,0,0,0,0,0,0,0,0,0,0,0,0,0,0,0,0,0,0,0,0,0,0,0,0,0,0,0,0,0,0,0,0,0,0,0,0,0,0,0,0,0,0,0,0,0,0,0,0,0,0,0,0,0,0,0,0,0,0,0,0,0,0,0,0,0,0,0,0,0,0,0,0,0,0,0,0,0,0,0,0,0,0,0,0,0,0,0,0,0,0,0,0,0,0,0,0,0,0,0,0,0,0,0,0,0,0,0,0,0,0,0,0,0,0,0,0,0,0,0,0,0,0,0,0,0,0,0,0,0,0,0,0,0,0,0,0,0,0,0,0,0,0,0,0,0,0,0,0,0,0,0,0,0,0,0,0,0,0,0,0,0,0,0,0,0,0,0,0,0,0,0,0,0,0,0,0,0,0,0,0,0,0,0,0,0,0,0,0,0,0,0,0,0,0,0,0,0,0,0,0,0,0,0,0,0,0,0,0,0,0,0,0,0,0,0,0,0,0,0,0,0,0,0,0,0,0,0,0,0,0,0,0,0,0,0,0,0,0,0,0,0,0,0,0,0,0,0,0,0,0,0,0,0,0,0,0,0,0,0,0,0,0,0,0,0,0,0,0,0,0,0,0,0,0,0,0,0,0,0,0,0,0,0,0,0,0,0,0,0,0,0,0,0,0,0,0,0,0,0,0,0,0,0,0,0,0,0,0,0,0,0,0,0,0,0,0,0,0,0,0,0,0,0,0,0,0,0,0,0,0,0,0,0,0,0,0,0,0,0,0,0,0,0,0,0,0,0,0,0,0,0,0,0,0,0,0,0,0,0,0,0,0,0,0,0,0,0,0,0,0,0,0,0,0,0,0,0,0],"trees":[{"base_weights":[3.9404845E-3,1.459321E0,-1.9375414E0,-1.81357E0,9.999991E-2,-1.9775447E0,1.1066086E0,-1.99441E0,9.998266E-2,-1.8634918E0,-1.9941515E0,1.9278693E0,-9.996291E-2,-9.999944E-2,-1.2430149E0,-1.6211795E0,-1.9764328E0,-1.9953085E0,-1.5486293E0,-9.945526E-2,9.997574E-2,1.5601269E0,-9.990424E-2,-1.0944986E0,-1.7724091E0,-1.9880186E0,-1.2408323E0,-1.9963274E0,-1.9718945E0,1.7370168E0,-9.9948846E-2,-9.6E-2,9.462141E-2,7.279586E-2,-9.998468E-2,-9.0095244E-2,7.0052627E-3,-9.9998765E-2,-8.191841E-2,4.9032897E-2,-9.9898554E-2,-9.875005E-2,-9.9871226E-2,-3.1121988E-2,-9.999714E-2,-9.447368E-2,9.9601924E-2],"categories":[],"categories_nodes":[],"categories_segments":[],"categories_sizes":[],"default_left":[0,0,0,0,0,0,0,0,0,0,0,0,0,0,0,0,0,0,0,0,0,0,0,0,0,0,0,0,0,0,0,0,0,0,0,0,0,0,0,0,0,0,0,0,0,0,0],"id":0,"left_children":[1,3,5,7,-1,9,11,13,-1,15,17,19,-1,-1,21,23,25,27,29,-1,-1,31,-1,33,35,37,39,41,43,45,-1,-1,-1,-1,-1,-1,-1,-1,-1,-1,-1,-1,-1,-1,-1,-1,-1],"loss_changes":[6.881055E6,2.463036E6,1.2706175E5,1.3608412E5,0E0,1.9465E3,3.452521E4,7.86875E2,0E0,3.5790625E3,4.5975E2,3.0079336E3,0E0,0E0,2.9478723E3,3.3131328E3,7.581875E2,1.725E1,3.4559927E3,0E0,0E0,3.4567078E2,0E0,2.1446355E4,1.8245703E3,3.6384375E2,2.3354116E3,1.575E1,1.4168125E3,2.6436182E2,0E0,0E0,0E0,0E0,0E0,0E0,0E0,0E0,0E0,0E0,0E0,0E0,0E0,0E0,0E0,0E0,0E0],"parents":[2147483647,0,0,1,1,2,2,3,3,5,5,6,6,7,7,9,9,10,10,11,11,14,14,15,15,16,16,17,17,18,18,21,21,23,23,24,24,25,25,26,26,27,27,28,28,29,29],"right_children":[2,4,6,8,-1,10,12,14,-1,16,18,20,-1,-1,22,24,26,28,30,-1,-1,32,-1,34,36,38,40,42,44,46,-1,-1,-1,-1,-1,-1,-1,-1,-1,-1,-1,-1,-1,-1,-1,-1,-1],"split_conditions":[2.4414062E-4,1E0,1.3927576E6,2.83332E6,9.999991E-2,3.9E1,6.142399E-4,2.3723619E5,9.998266E-2,1E0,1.068286E6,3.083844E6,-9.996291E-2,-9.999944E-2,2.4306536E5,4.654433E4,1.0414398E6,5.2871794E5,2.12993E3,-9.945526E-2,9.997574E-2,2.8274294E5,-9.990424E-2,5.7221134E-4,1.8795555E6,7.2771E4,9E0,2E0,6.142399E-4,6.092805E5,-9.9948846E-2,-9.6E-2,9.462141E-2,7.279586E-2,-9.998468E-2,-9.0095244E-2,7.0052627E-3,-9.9998765E-2,-8.191841E-2,4.9032897E-2,-9.9898554E-2,-9.875005E-2,-9.9871226E-2,-3.1121988E-2,-9.999714E-2,-9.447368E-2,9.9601924E-2],"split_indices":[8,12,9,1,0,0,11,9,0,9,9,2,0,0,9,4,1,9,4,0,0,3,0,10,1,6,0,17,11,2,0,0,0,0,0,0,0,0,0,0,0,0,0,0,0,0,0],"split_type":[0,0,0,0,0,0,0,0,0,0,0,0,0,0,0,0,0,0,0,0,0,0,0,0,0,0,0,0,0,0,0,0,0,0,0,0,0,0,0,0,0,0,0,0,0,0,0],"sum_hessian":[2.435257E6,1.391875E6,1.04338206E6,1.9733584E5,1.1945392E6,1.0298491E6,1.3532934E4,1.8840152E5,8.934331E3,1.3090879E5,8.989403E5,1.0703184E4,2.82975E3,1.8701125E5,1.3902671E3,4.1623258E4,8.928553E4,8.9660806E5,2.332267E3,1.9175E2,1.0511434E4,2.947671E2,1.0955E3,9.287387E3,3.233587E4,8.7899266E4,1.3862671E3,8.5913706E5,3.7471016E4,2.807671E2,2.0515E3,2.525E1,2.695171E2,2.4326367E3,6.85475E3,3.1844852E4,4.910171E2,8.4988E4,2.911267E3,3.522671E2,1.034E3,4.2127266E4,8.170098E5,7.635171E2,3.67075E4,1.8E1,2.627671E2],"tree_param":{"num_deleted":"0","num_feature":"18","num_nodes":"47","size_leaf_vector":"1"}},{"base_weights":[5.422483E-3,1.389304E0,-1.8364984E0,-1.7371173E0,9.524181E-2,-1.878309E0,1.1186078E0,-1.8995203E0,9.5224746E-2,-1.7513839E0,-1.8969053E0,1.8414313E0,-9.521236E-2,-9.5241375E-2,-1.1911752E0,-1.5431315E0,-1.84752E0,-1.8980007E0,-1.4768789E0,1.8765293E0,-9.435334E-2,1.4530908E0,-9.515547E-2,-1.0459687E0,-1.6867608E0,-1.869514E0,-8.4554607E-1,-1.8990794E0,-1.8289175E0,1.6258817E0,-9.5195405E-2,-9.390446E-2,1.9003501E0,-9.172976E-2,8.885817E-2,6.828071E-2,-9.522827E-2,-8.574734E-2,6.7646476E-3,-9.404381E-2,-6.897482E-2,7.872636E-2,-9.565988E-2,-9.457862E-2,-9.516097E-2,2.0988068E-2,-9.5257305E-2,-9.086805E-2,9.487884E-2,9.4779976E-2,1.04837455E-1],"categories":[],"categories_nodes":[],"categories_segments":[],"categories_sizes":[],"default_left":[0,0,0,0,0,0,0,0,0,0,0,0,0,0,0,0,0,0,0,0,0,0,0,0,0,0,0,0,0,0,0,0,0,0,0,0,0,0,0,0,0,0,0,0,0,0,0,0,0,0,0],"id":1,"left_children":[1,3,5,7,-1,9,11,13,-1,15,17,19,-1,-1,21,23,25,27,29,31,-1,33,-1,35,37,39,41,43,45,47,-1,-1,49,-1,-1,-1,-1,-1,-1,-1,-1,-1,-1,-1,-1,-1,-1,-1,-1,-1,-1],"loss_changes":[6.196391E6,2.2372058E6,1.288535E5,1.1620519E5,0E0,2.42375E3,3.1794838E4,7.045E2,0E0,2.628E3,4.0975E2,1.5402188E3,0E0,0E0,2.6413716E3,2.9623828E3,1.9795312E3,6.3E1,3.1004868E3,1.0440625E3,0E0,3.2059912E2,0E0,1.9275531E4,1.6544531E3,4.869375E2,4.997858E3,2.325E1,2.3634297E3,2.6850708E2,0E0,0E0,6.4179688E0,0E0,0E0,0E0,0E0,0E0,0E0,0E0,0E0,0E0,0E0,0E0,0E0,0E0,0E0,0E0,0E0,0E0,0E0],"parents":[2147483647,0,0,1,1,2,2,3,3,5,5,6,6,7,7,9,9,10,10,11,11,14,14,15,15,16,16,17,17,18,18,19,19,21,21,23,23,24,24,25,25,26,26,27,27,28,28,29,29,32,32],"right_children":[2,4,6,8,-1,10,12,14,-1,16,18,20,-1,-1,22,24,26,28,30,32,-1,34,-1,36,38,40,42,44,46,48,-1,-1,50,-1,-1,-1,-1,-1,-1,-1,-1,-1,-1,-1,-1,-1,-1,-1,-1,-1,-1],"split_conditions":[2.4414062E-4,1E0,1.3927576E6,2.83332E6,9.524181E-2,3.9E1,2.12993E3,2.3723619E5,9.5224746E-2,1E0,1.068286E6,9.799204E6,-9.521236E-2,-9.5241375E-2,2.4306536E5,4.654433E4,9.055412E5,1.3414498E6,2.12993E3,4.1339756E5,-9.435334E-2,2.8274294E5,-9.515547E-2,8E0,1.8795555E6,1.3207516E1,9.7503575E5,7.8125E-3,4.4E1,8.448E5,-9.5195405E-2,-9.390446E-2,8.71499E6,-9.172976E-2,8.885817E-2,6.828071E-2,-9.522827E-2,-8.574734E-2,6.7646476E-3,-9.404381E-2,-6.897482E-2,7.872636E-2,-9.565988E-2,-9.457862E-2,-9.516097E-2,2.0988068E-2,-9.5257305E-2,-9.086805E-2,9.487884E-2,9.4779976E-2,1.04837455E-1],"split_indices":[8,12,9,1,0,0,4,9,0,9,9,5,0,0,9,4,1,8,4,1,0,3,0,6,1,11,5,9,0,2,0,0,5,0,0,0,0,0,0,0,0,0,0,0,0,0,0,0,0,0,0],"split_type":[0,0,0,0,0,0,0,0,0,0,0,0,0,0,0,0,0,0,0,0,0,0,0,0,0,0,0,0,0,0,0,0,0,0,0,0,0,0,0,0,0,0,0,0,0,0,0,0,0,0,0],"sum_hessian":[2.4309085E6,1.3880396E6,1.0428688E6,1.9648178E5,1.1915579E6,1.02831994E6,1.4548874E4,1.8809397E5,8.387816E3,1.3142286E5,8.9689706E5,1.1741643E4,2.8072314E3,1.8669338E5,1.400594E3,4.1513434E4,8.990943E4,8.945604E5,2.3366863E3,1.1632662E4,1.0898011E2,2.9685043E2,1.1037435E3,9.306975E3,3.2206459E4,8.79773E4,1.9321301E3,8.8077906E5,1.37813125E4,2.823213E2,2.0543652E3,7.281947E1,1.1559843E4,2.6189613E1,2.706608E2,2.4433918E3,6.8635825E3,3.1715947E4,4.9051105E2,8.598059E4,1.9967007E3,5.9128375E2,1.3408464E3,3.1324684E5,5.6753225E5,4.5166812E2,1.3329645E4,2.0204819E1,2.6211646E2,1.129773E4,2.6211176E2],"tree_param":{"num_deleted":"0","num_feature":"18","num_nodes":"51","size_leaf_vector":"1"}},{"base_weights":[-6.590582E-5,1.3281788E0,-1.7675037E0,-1.676126E0,9.113171E-2,-1.8039995E0,1.0096748E0,-9.1132276E-2,9.112089E-2,-1.7200744E0,-1.8161476E0,-9.119593E-2,1.7702006E0,-1.5433333E0,-1.800962E0,-1.8171984E0,-1.4136689E0,-9.05529E-2,9.114256E-2,-1.0798825E0,-1.6748167E0,-1.8118265E0,-1.503471E0,-1.8215617E0,-1.7972255E0,1.5825733E0,-9.1088824E-2,6.301101E-2,-9.1125004E-2,-8.5163884E-2,5.7236883E-3,-9.119951E-2,-8.25453E-2,8.226198E-2,-9.200883E-2,-9.114912E-2,-9.0888776E-2,-7.8987546E-2,-9.016421E-2,-8.653706E-2,9.079508E-2],"categories":[],"categories_nodes":[],"categories_segments":[],"categories_sizes":[],"default_left":[0,0,0,0,0,0,0,0,0,0,0,0,0,0,0,0,0,0,0,0,0,0,0,0,0,0,0,0,0,0,0,0,0,0,0,0,0,0,0,0,0],"id":2,"left_children":[1,3,5,7,-1,9,11,-1,-1,13,15,-1,17,19,21,23,25,-1,-1,27,29,31,33,35,37,39,-1,-1,-1,-1,-1,-1,-1,-1,-1,-1,-1,-1,-1,-1,-1],"loss_changes":[5.652245E6,2.0420115E6,1.0470725E5,9.9585875E4,0E0,1.03625E3,2.8880871E4,0E0,0E0,1.8403125E3,3.74E2,0E0,1.9954258E3,2.4654297E3,2.8284375E2,7.375E1,2.8451133E3,0E0,0E0,1.5559561E4,1.6066328E3,1.636875E2,3.3138804E3,2.5E-1,2.0678125E2,2.1895667E2,0E0,0E0,0E0,0E0,0E0,0E0,0E0,0E0,0E0,0E0,0E0,0E0,0E0,0E0,0E0],"parents":[2147483647,0,0,1,1,2,2,3,3,5,5,6,6,9,9,10,10,12,12,13,13,14,14,15,15,16,16,19,19,20,20,21,21,22,22,23,23,24,24,25,25],"right_children":[2,4,6,8,-1,10,12,-1,-1,14,16,-1,18,20,22,24,26,-1,-1,28,30,32,34,36,38,40,-1,-1,-1,-1,-1,-1,-1,-1,-1,-1,-1,-1,-1,-1,-1],"split_conditions":[2.4414062E-4,1E0,1.3927576E6,2.83332E6,9.113171E-2,3.9E1,9.834903E6,-9.1132276E-2,9.112089E-2,1E0,1.068286E6,-9.119593E-2,2.83332E6,4.654433E4,7.2771E4,2.8848206E5,2.12993E3,-9.05529E-2,9.114256E-2,5.7221134E-4,1.8795555E6,6.358191E5,-2.645573E5,1.9851673E-1,2.927778E5,8.448E5,-9.1088824E-2,6.301101E-2,-9.1125004E-2,-8.5163884E-2,5.7236883E-3,-9.119951E-2,-8.25453E-2,8.226198E-2,-9.200883E-2,-9.114912E-2,-9.0888776E-2,-7.8987546E-2,-9.016421E-2,-8.653706E-2,9.079508E-2],"split_indices":[8,12,9,1,0,0,2,0,0,9,9,0,1,4,6,1,4,0,0,10,1,7,7,11,1,2,0,0,0,0,0,0,0,0,0,0,0,0,0,0,0],"split_type":[0,0,0,0,0,0,0,0,0,0,0,0,0,0,0,0,0,0,0,0,0,0,0,0,0,0,0,0,0,0,0,0,0,0,0,0,0,0,0,0,0],"sum_hessian":[2.407678E6,1.374631E6,1.0330469E6,1.9426662E5,1.1803644E6,1.0196477E6,1.3399172E4,1.8645823E5,7.8083896E3,1.289481E5,8.906996E5,2.834979E3,1.0564192E4,4.0492426E4,8.845567E4,8.8837625E5,2.3233633E3,1.5254977E2,1.0411643E4,8.951234E3,3.154119E4,8.5333805E4,3.121873E3,7.290211E5,1.5935512E5,2.7814645E2,2.0452169E3,2.1561238E3,6.7951104E3,3.1047445E4,4.9374368E2,7.932669E4,6.0071147E3,3.0118164E2,2.8206914E3,5.2973325E5,1.9928786E5,4.326627E3,1.550285E5,1.7848429E1,2.6029803E2],"tree_param":{"num_deleted":"0","num_feature":"18","num_nodes":"41","size_leaf_vector":"1"}},{"base_weights":[8.963191E-3,1.2796441E0,-1.6927141E0,-1.5876012E0,8.754902E-2,-1.7287518E0,9.968756E-1,-1.7457889E0,1.7159781E0,-1.5456363E0,-1.7384906E0,1.6978147E0,-8.751921E-2,-8.754866E-2,-1.0023336E0,8.753534E-2,-8.651235E-2,-1.1951053E0,-1.6510437E0,-1.6709596E0,-1.7444397E0,1.7328931E0,-8.67537E-2,1.4761693E0,-8.746195E-2,2.2003226E0,-1.2734296E0,-1.7240295E0,-9.06839E-1,-1.7291878E0,-1.3972619E0,-1.7354164E0,-1.7495314E0,-8.5172445E-2,1.74241E0,-8.436137E-2,8.914016E-2,-7.823492E-2,1.1514622E-1,-4.4844463E-2,-8.821144E-2,-7.4860856E-2,-8.766799E-2,5.70422E-2,-7.0786364E-2,-8.780661E-2,-8.23315E-2,-7.911017E-2,-2.2444028E-2,-7.753355E-2,-8.692526E-2,-8.75672E-2,-8.517315E-2,6.2185925E-2,8.792306E-2],"categories":[],"categories_nodes":[],"categories_segments":[],"categories_sizes":[],"default_left":[0,0,0,0,0,0,0,0,0,0,0,0,0,0,0,0,0,0,0,0,0,0,0,0,0,0,0,0,0,0,0,0,0,0,0,0,0,0,0,0,0,0,0,0,0,0,0,0,0,0,0,0,0,0,0],"id":3,"left_children":[1,3,5,7,-1,9,11,13,15,17,19,21,-1,-1,23,-1,-1,25,27,29,31,33,-1,35,-1,37,39,41,43,45,47,49,51,-1,53,-1,-1,-1,-1,-1,-1,-1,-1,-1,-1,-1,-1,-1,-1,-1,-1,-1,-1,-1,-1],"loss_changes":[5.176525E6,1.8522392E6,9.92E4,1.01121E5,0E0,1.79775E3,2.60615E4,7.096875E2,1.0613066E3,1.8824141E3,3.82E2,1.3013789E3,0E0,0E0,2.3742842E3,0E0,0E0,3.1398516E3,2.1280625E3,1.2349219E3,3.725E1,3.5202344E2,0E0,2.912896E2,0E0,1.06553345E2,2.1291328E3,2.3460156E2,3.6534146E3,1.3920312E2,2.3895254E3,1.785E2,4.375E1,0E0,8.271875E1,0E0,0E0,0E0,0E0,0E0,0E0,0E0,0E0,0E0,0E0,0E0,0E0,0E0,0E0,0E0,0E0,0E0,0E0,0E0,0E0],"parents":[2147483647,0,0,1,1,2,2,3,3,5,5,6,6,7,7,8,8,9,9,10,10,11,11,14,14,17,17,18,18,19,19,20,20,21,21,23,23,25,25,26,26,27,27,28,28,29,29,30,30,31,31,32,32,34,34],"right_children":[2,4,6,8,-1,10,12,14,16,18,20,22,-1,-1,24,-1,-1,26,28,30,32,34,-1,36,-1,38,40,42,44,46,48,50,52,-1,54,-1,-1,-1,-1,-1,-1,-1,-1,-1,-1,-1,-1,-1,-1,-1,-1,-1,-1,-1,-1],"split_conditions":[2.4414062E-4,1E0,1.3927576E6,1.3927576E6,8.754902E-2,1.6E1,2.12993E3,2.3723619E5,4.77637E3,5E-1,3.9E1,9.799204E6,-8.751921E-2,-8.754866E-2,2.4306536E5,8.753534E-2,-8.651235E-2,1E0,1E0,3.1351012E5,7.8125E-3,0E0,-8.67537E-2,2.7768206E5,-8.746195E-2,1E0,8E0,9E0,4.439529E4,1.1036534E5,1E0,4.108473E4,1E0,-8.5172445E-2,1.6645405E5,-8.436137E-2,8.914016E-2,-7.823492E-2,1.1514622E-1,-4.4844463E-2,-8.821144E-2,-7.4860856E-2,-8.766799E-2,5.70422E-2,-7.0786364E-2,-8.780661E-2,-8.23315E-2,-7.911017E-2,-2.2444028E-2,-7.753355E-2,-8.692526E-2,-8.75672E-2,-8.517315E-2,6.2185925E-2,8.792306E-2],"split_indices":[8,12,9,9,0,0,4,9,5,9,0,5,0,0,9,0,0,16,14,7,9,6,0,3,0,13,6,0,8,7,13,5,14,0,3,0,0,0,0,0,0,0,0,0,0,0,0,0,0,0,0,0,0,0,0],"split_type":[0,0,0,0,0,0,0,0,0,0,0,0,0,0,0,0,0,0,0,0,0,0,0,0,0,0,0,0,0,0,0,0,0,0,0,0,0,0,0,0,0,0,0,0,0,0,0,0,0,0,0,0,0,0,0],"sum_hessian":[2.3940005E6,1.3705674E6,1.0234333E6,1.9349442E5,1.1770729E6,1.00990206E6,1.3531248E4,1.8465305E5,8.84138E3,5.1006875E4,9.588952E5,1.0780991E4,2.7502563E3,1.833729E5,1.2801504E3,8.7536875E3,8.769209E1,1.1795237E4,3.9211637E4,7.765808E4,8.8123706E5,1.0672461E4,1.0853053E2,2.961863E2,9.8396405E2,2.6531296E2,1.1529925E4,3.57082E4,3.503439E3,6.4030195E4,1.3627881E4,3.1801478E5,5.632223E5,2.8954634E1,1.0643506E4,2.5746216E1,2.704401E2,6.6344447E0,2.5867853E2,6.526124E3,5.003801E3,4.0951863E3,3.1613014E4,6.9707697E2,2.806362E3,4.8258555E4,1.5771642E4,1.1403366E4,2.2245144E3,5.238531E3,3.1277625E5,5.418622E5,2.1360098E4,3.3453745E2,1.0308969E4],"tree_param":{"num_deleted":"0","num_feature":"18","num_nodes":"55","size_leaf_vector":"1"}},{"base_weights":[-2.1207104E-3,1.2288531E0,-1.6356574E0,-1.5095885E0,8.4401436E-2,-1.6678147E0,9.076939E-1,-1.6646582E0,8.438804E-2,-1.5733216E0,-1.6815817E0,-8.441232E-2,1.6313304E0,4.102582E-1,-8.4402315E-2,-1.592458E0,-9.622287E-1,-1.684665E0,-1.652567E0,1.6949564E0,-8.6761154E-2,8.433112E-2,-8.4294215E-2,-1.6785113E0,-1.4743344E0,1.5766227E-1,-1.7313856E0,-1.6768312E0,-8.441743E-2,-1.6649168E0,1.925942E0,8.437437E-2,8.89105E-2,-7.5679146E-2,-8.4627114E-2,-5.4875534E-2,-7.880592E-2,5.3226072E-2,-8.663075E-2,-8.565851E-2,-9.142002E-2,-8.420991E-2,-8.2142636E-2,-6.2143773E-2,-8.448394E-2,-8.15722E-2,1.1712698E-1],"categories":[],"categories_nodes":[],"categories_segments":[],"categories_sizes":[],"default_left":[0,0,0,0,0,0,0,0,0,0,0,0,0,0,0,0,0,0,0,0,0,0,0,0,0,0,0,0,0,0,0,0,0,0,0,0,0,0,0,0,0,0,0,0,0,0,0],"id":4,"left_children":[1,3,5,7,-1,9,11,13,-1,15,17,-1,19,21,-1,23,25,27,29,31,-1,-1,-1,33,35,37,39,41,-1,43,45,-1,-1,-1,-1,-1,-1,-1,-1,-1,-1,-1,-1,-1,-1,-1,-1],"loss_changes":[4.7159135E6,1.6817038E6,8.2429E4,9.522481E4,0E0,1.29175E3,2.3642244E4,8.889781E3,0E0,1.4784688E3,7.45E1,0E0,2.1109746E3,5.4671675E3,0E0,1.2447812E3,3.3133867E3,1.95E1,3.6931094E3,2.65625E0,0E0,0E0,0E0,1.6140625E2,1.9823281E3,2.6877515E3,5.4296875E-1,5.98125E1,0E0,8.671719E2,4.3010583E2,0E0,0E0,0E0,0E0,0E0,0E0,0E0,0E0,0E0,0E0,0E0,0E0,0E0,0E0,0E0,0E0],"parents":[2147483647,0,0,1,1,2,2,3,3,5,5,6,6,7,7,9,9,10,10,12,12,13,13,15,15,16,16,17,17,18,18,19,19,23,23,24,24,25,25,26,26,27,27,29,29,30,30],"right_children":[2,4,6,8,-1,10,12,14,-1,16,18,-1,20,22,-1,24,26,28,30,32,-1,-1,-1,34,36,38,40,42,-1,44,46,-1,-1,-1,-1,-1,-1,-1,-1,-1,-1,-1,-1,-1,-1,-1,-1],"split_conditions":[2.4414062E-4,1E0,1.3927576E6,2.83332E6,8.4401436E-2,3.9E1,1E0,5.7221134E-4,8.438804E-2,9.055412E5,1E0,-8.441232E-2,2.2583594E2,4.0924E2,-8.4402315E-2,1E0,1.2E1,7.8125E-3,5.292002E5,1.9988534E6,-8.6761154E-2,8.433112E-2,-8.4294215E-2,-2.645573E5,4.654433E4,7.1487844E-1,1.8795555E6,1E0,-8.441743E-2,2E0,2.6428E2,8.437437E-2,8.89105E-2,-7.5679146E-2,-8.4627114E-2,-5.4875534E-2,-7.880592E-2,5.3226072E-2,-8.663075E-2,-8.565851E-2,-9.142002E-2,-8.420991E-2,-8.2142636E-2,-6.2143773E-2,-8.448394E-2,-8.15722E-2,1.1712698E-1],"split_indices":[8,10,9,1,0,0,13,10,0,1,14,0,7,3,0,15,0,9,3,8,0,0,0,7,4,10,1,13,0,17,8,0,0,0,0,0,0,0,0,0,0,0,0,0,0,0,0],"split_type":[0,0,0,0,0,0,0,0,0,0,0,0,0,0,0,0,0,0,0,0,0,0,0,0,0,0,0,0,0,0,0,0,0,0,0,0,0,0,0,0,0,0,0,0,0,0,0],"sum_hessian":[2.3452422E6,1.3374151E6,1.0078271E6,1.9205153E5,1.1453636E6,9.95244E5,1.2583126E4,1.8316847E5,8.883066E3,1.26577375E5,8.686666E5,2.7426824E3,9.840444E3,2.0414011E3,1.8112706E5,1.22732234E5,3.84514E3,7.851722E5,8.3494484E4,9.658432E3,1.8201263E2,1.2689603E3,7.724408E2,7.0996875E4,5.173536E4,1.5658827E3,2.2792573E3,2.512832E5,5.3388894E5,8.320789E4,2.8659332E2,8.883889E3,7.74543E2,5.575455E3,6.5421418E4,1.1005121E4,4.073024E4,1.0585391E3,5.073436E2,1.9355352E3,3.4372208E2,2.0646748E5,4.4815734E4,4.6144717E3,7.859342E4,2.9713078E1,2.5688025E2],"tree_param":{"num_deleted":"0","num_feature":"18","num_nodes":"47","size_leaf_vector":"1"}},{"base_weights":[-5.1022423E-3,1.1855888E0,-1.5711571E0,-1.4803898E0,8.161706E-2,-1.6054925E0,9.4682395E-1,-8.161794E-2,1.6297736E0,-1.4821144E0,-1.6236852E0,1.5883247E0,-8.15897E-2,-7.108582E-2,8.16095E-2,-1.2740601E0,-1.5797606E0,-1.6246727E0,-1.247393E0,1.6465975E0,-8.412979E-2,-6.827594E-1,-1.4575679E0,-1.5904288E0,-4.853071E-2,-1.6275918E0,-1.5972226E0,1.5052161E0,-8.158135E-2,-7.09064E-2,1.648752E0,7.1133174E-2,-7.536525E-2,-7.708244E-2,-4.474583E-2,-6.1077606E-2,-8.0592215E-2,-8.290945E-2,8.836814E-2,-8.084665E-2,-8.163127E-2,-8.046661E-2,9.002512E-2,-7.7533804E-2,8.6052865E-2,8.184208E-2,1.0531186E-1],"categories":[],"categories_nodes":[],"categories_segments":[],"categories_sizes":[],"default_left":[0,0,0,0,0,0,0,0,0,0,0,0,0,0,0,0,0,0,0,0,0,0,0,0,0,0,0,0,0,0,0,0,0,0,0,0,0,0,0,0,0,0,0,0,0,0,0],"id":5,"left_children":[1,3,5,7,-1,9,11,-1,13,15,17,19,-1,-1,-1,21,23,25,27,29,-1,31,33,35,37,39,41,43,-1,-1,45,-1,-1,-1,-1,-1,-1,-1,-1,-1,-1,-1,-1,-1,-1,-1,-1],"loss_changes":[4.289413E6,1.5564171E6,8.590075E4,8.865006E4,0E0,2.1975E3,2.211339E4,0E0,6.676953E1,2.5569375E3,3.15E2,2.0430625E3,0E0,0E0,0E0,4.365551E3,1.40025E3,6.525E1,2.371846E3,7.181055E1,0E0,1.6552338E4,1.4512695E3,6.703281E2,1.7399209E3,3.825E1,3.3747656E3,1.8400403E2,0E0,0E0,5.3447266E1,0E0,0E0,0E0,0E0,0E0,0E0,0E0,0E0,0E0,0E0,0E0,0E0,0E0,0E0,0E0,0E0],"parents":[2147483647,0,0,1,1,2,2,3,3,5,5,6,6,8,8,9,9,10,10,11,11,15,15,16,16,17,17,18,18,19,19,21,21,22,22,23,23,24,24,25,25,26,26,27,27,30,30],"right_children":[2,4,6,8,-1,10,12,-1,14,16,18,20,-1,-1,-1,22,24,26,28,30,-1,32,34,36,38,40,42,44,-1,-1,46,-1,-1,-1,-1,-1,-1,-1,-1,-1,-1,-1,-1,-1,-1,-1,-1],"split_conditions":[2.4414062E-4,1E0,1.3927576E6,1.1328647E7,8.161706E-2,3.9E1,2.12993E3,-8.161794E-2,7.508417E4,1E0,1.068286E6,1.026348E0,-8.15897E-2,-7.108582E-2,8.16095E-2,4.654433E4,3.18508E5,1E0,2.12993E3,0E0,-8.412979E-2,5.7221134E-4,1.25E-1,9E0,1.4272336E6,7.8125E-3,5.292002E5,8.448E5,-8.158135E-2,-7.09064E-2,8.71499E6,7.1133174E-2,-7.536525E-2,-7.708244E-2,-4.474583E-2,-6.1077606E-2,-8.0592215E-2,-8.290945E-2,8.836814E-2,-8.084665E-2,-8.163127E-2,-8.046661E-2,9.002512E-2,-7.7533804E-2,8.6052865E-2,8.184208E-2,1.0531186E-1],"split_indices":[8,12,9,2,0,0,4,0,9,9,9,10,0,0,0,4,6,14,4,6,0,10,9,0,2,9,3,2,0,0,5,0,0,0,0,0,0,0,0,0,0,0,0,0,0,0,0],"split_type":[0,0,0,0,0,0,0,0,0,0,0,0,0,0,0,0,0,0,0,0,0,0,0,0,0,0,0,0,0,0,0,0,0,0,0,0,0,0,0,0,0,0,0,0,0,0,0],"sum_hessian":[2.3003365E6,1.3067775E6,9.9355906E5,1.8755384E5,1.1192236E6,9.8019344E5,1.3365582E4,1.7881698E5,8.736851E3,1.2597242E5,8.5422106E5,1.0703276E4,2.6623057E3,6.415368E0,8.730436E3,4.0242645E4,8.572977E4,8.519818E5,2.239237E3,1.0516448E4,1.8682776E2,9.532424E3,3.071022E4,8.5136516E4,5.932594E2,7.7003225E5,8.194958E4,2.7389633E2,1.9653407E3,6.893594E0,1.0509555E4,2.6823562E3,6.8500674E3,2.6715959E4,3.994263E3,4.6748975E3,8.046162E4,3.145635E2,2.786959E2,2.4711202E5,5.2292022E5,8.165909E4,2.9048032E2,1.7630796E1,2.5626553E2,1.0247561E4,2.619946E2],"tree_param":{"num_deleted":"0","num_feature":"18","num_nodes":"47","size_leaf_vector":"1"}},{"base_weights":[-1.0903451E-3,-1.259846E0,1.2734742E0,8.4545124E-1,-1.3615377E0,1.4641225E0,-1.5737251E0,-1.4283521E0,1.4185228E0,-1.5582751E0,-9.4446176E-1,-6.0942143E-1,1.5800313E0,1.3499032E0,-1.5877228E0,-1.514769E0,7.9600644E-1,1.581815E0,-1.1859497E0,-1.563222E0,-1.1225978E-1,1.5247747E0,-1.5814834E0,-1.5608106E0,7.9128526E-2,1.5762473E0,7.911707E-2,-7.988721E-2,2.1206872E0,-8.0365255E-2,-7.923587E-2,5.2401274E-1,-7.956044E-2,1.0078901E-1,-8.279185E-2,7.905362E-2,8.44542E-2,-7.044685E-2,-7.97257E-2,-9.979569E-1,-1.5673196E0,-7.917487E-2,1.5790197E0,-7.8973934E-2,1.543779E0,-1.5853251E0,-1.5054848E0,-1.253115E0,-7.924879E-2,1.570934E0,1.5818974E0,-6.757288E-2,1.10197365E-1,-7.872027E-2,7.835071E-2,-8.000877E-2,7.919246E-2,-7.9138085E-2,4.939949E-2,-7.846862E-2,-5.212912E-2,8.516356E-2,-7.7367455E-2,7.5015835E-2,7.935351E-2,-7.97557E-2,-7.919965E-2,-2.4022168E-2,-7.917676E-2,-7.9163544E-2,5.1855605E-2,-7.816679E-2,7.861536E-2,7.913059E-2,-7.742184E-2],"categories":[],"categories_nodes":[],"categories_segments":[],"categories_sizes":[],"default_left":[0,0,0,0,0,0,0,0,0,0,0,0,0,0,0,0,0,0,0,0,0,0,0,0,0,0,0,0,0,0,0,0,0,0,0,0,0,0,0,0,0,0,0,0,0,0,0,0,0,0,0,0,0,0,0,0,0,0,0,0,0,0,0,0,0,0,0,0,0,0,0,0,0,0,0],"id":6,"left_children":[1,3,5,7,9,11,13,15,17,19,21,23,25,27,29,31,33,35,37,39,41,43,45,47,-1,49,-1,-1,51,-1,-1,53,-1,-1,-1,-1,-1,55,-1,57,59,-1,61,-1,63,65,67,69,-1,71,73,-1,-1,-1,-1,-1,-1,-1,-1,-1,-1,-1,-1,-1,-1,-1,-1,-1,-1,-1,-1,-1,-1,-1,-1],"loss_changes":[3.6276212E6,2.4355212E5,6.098494E5,6.8305516E4,8.9042625E4,2.5307775E5,2.8876562E3,2.0296328E3,1.7807508E4,5.27425E3,5.471123E5,1.16255734E5,6E0,7.6791486E2,1.265625E0,1.5839902E3,1.1853984E3,1.328125E-1,1.1257065E3,1.700375E3,6.260787E3,4.210578E3,7.80625E1,2.8678125E2,0E0,8.5625E0,0E0,0E0,8.030481E1,0E0,0E0,8.074334E2,0E0,0E0,0E0,0E0,0E0,1.6813939E3,0E0,6.1472036E3,7.83875E2,0E0,4.5734912E2,0E0,1.3070312E2,6.25E-1,1.065127E3,2.1458994E3,0E0,8.421875E2,4.1215625E2,0E0,0E0,0E0,0E0,0E0,0E0,0E0,0E0,0E0,0E0,0E0,0E0,0E0,0E0,0E0,0E0,0E0,0E0,0E0,0E0,0E0,0E0,0E0,0E0],"parents":[2147483647,0,0,1,1,2,2,3,3,4,4,5,5,6,6,7,7,8,8,9,9,10,10,11,11,12,12,13,13,14,14,15,15,16,16,17,17,18,18,19,19,20,20,21,21,22,22,23,23,25,25,28,28,31,31,37,37,39,39,40,40,42,42,44,44,45,45,46,46,47,47,49,49,50,50],"right_children":[2,4,6,8,10,12,14,16,18,20,22,24,26,28,30,32,34,36,38,40,42,44,46,48,-1,50,-1,-1,52,-1,-1,54,-1,-1,-1,-1,-1,56,-1,58,60,-1,62,-1,64,66,68,70,-1,72,74,-1,-1,-1,-1,-1,-1,-1,-1,-1,-1,-1,-1,-1,-1,-1,-1,-1,-1,-1,-1,-1,-1,-1,-1],"split_conditions":[3.5346E4,8E0,1.026348E0,1E0,1E0,1E0,-2.645573E5,1.0414398E6,1.026348E0,2.5723333E0,1.026348E0,2.83332E6,3.2122062E5,-2.784822E5,3.9E1,1.7846E2,9.7503575E5,6.0516106E5,8E0,1.7846E2,1E0,0E0,2.1E1,1.2731753E-1,7.9128526E-2,1E0,7.911707E-2,-7.988721E-2,1E0,-8.0365255E-2,-7.923587E-2,5.5282165E6,-7.956044E-2,1.0078901E-1,-8.279185E-2,7.905362E-2,8.44542E-2,1E0,-7.97257E-2,1E0,2.83332E6,-7.917487E-2,4.4E1,-7.8973934E-2,1E0,3.9E1,2.4E1,2.735034E5,-7.924879E-2,1E0,6.142399E-4,-6.757288E-2,1.10197365E-1,-7.872027E-2,7.835071E-2,-8.000877E-2,7.919246E-2,-7.9138085E-2,4.939949E-2,-7.846862E-2,-5.212912E-2,8.516356E-2,-7.7367455E-2,7.5015835E-2,7.935351E-2,-7.97557E-2,-7.919965E-2,-2.4022168E-2,-7.917676E-2,-7.9163544E-2,5.1855605E-2,-7.816679E-2,7.861536E-2,7.913059E-2,-7.742184E-2],"split_indices":[6,16,10,10,10,10,7,1,10,11,10,1,1,7,0,1,5,1,0,1,12,6,16,10,0,14,0,0,14,0,0,4,0,0,0,0,0,15,0,15,1,0,0,0,14,0,0,7,0,15,11,0,0,0,0,0,0,0,0,0,0,0,0,0,0,0,0,0,0,0,0,0,0,0,0],"split_type":[0,0,0,0,0,0,0,0,0,0,0,0,0,0,0,0,0,0,0,0,0,0,0,0,0,0,0,0,0,0,0,0,0,0,0,0,0,0,0,0,0,0,0,0,0,0,0,0,0,0,0,0,0,0,0,0,0,0,0,0,0,0,0,0,0,0,0,0,0,0,0,0,0,0,0],"sum_hessian":[2.2610922E6,1.1376012E6,1.123491E6,5.2417082E4,1.0851842E6,1.0529838E6,7.05072E4,1.0551142E4,4.1865938E4,7.373626E5,3.4782156E5,5.5744266E4,9.972395E5,3.3547644E2,7.017173E4,1.0156907E4,3.942342E2,3.9396344E4,2.4695955E3,7.3484856E5,2.5141116E3,7.1329836E4,2.7649172E5,3.88727E4,1.6871566E4,3.7830153E5,6.18938E5,6.929075E1,2.661857E2,9.261781E3,6.0909945E4,3.667911E2,9.790116E3,2.6340887E2,1.3082532E2,3.914201E4,2.5433244E2,6.6241656E2,1.8071788E3,5.290568E3,7.2955794E5,1.3445851E3,1.1695265E3,4.334971E2,7.089634E4,2.6316734E5,1.3324368E4,2.8347542E3,3.6037945E4,1.9511361E5,1.8318792E5,5.848686E0,2.60337E2,1.215795E2,2.4521161E2,3.4421445E2,3.1820212E2,4.0872441E3,1.2033237E3,7.26713E5,2.8449526E3,1.1252911E3,4.423535E1,3.5397137E4,3.5499203E4,3.1374043E4,2.3179331E5,9.433757E2,1.2380992E4,2.4778967E3,3.5685757E2,8.491504E1,1.950287E5,1.8314664E5,4.1273365E1],"tree_param":{"num_deleted":"0","num_feature":"18","num_nodes":"75","size_leaf_vector":"1"}},{"base_weights":[1.7600878E-3,1.1211671E0,-1.4811527E0,-1.4141172E0,7.692876E-2,-1.514453E0,9.0582705E-1,-1.5335083E0,7.69126E-2,-1.429861E0,-1.5319262E0,1.5028609E0,-7.698303E-2,-7.693889E-2,-8.361115E-1,-1.4620042E0,-1.0606937E0,-1.5329154E0,-1.156E0,1.5571382E0,-7.8988604E-2,1.54084E0,-7.7069186E-2,-1.3419057E0,-1.5227746E0,1.6217538E0,-1.47117E0,-1.5228093E0,-7.6981656E-2,-7.6899365E-2,1.4063684E0,-7.293188E-2,1.5603487E0,-7.385298E-2,9.011602E-2,-5.6161594E-2,-7.320804E-2,-7.712123E-2,-7.141444E-2,9.170436E-2,-7.9264686E-2,-7.770428E-2,8.610652E-2,-7.500672E-2,-7.6989524E-2,-7.2990574E-2,8.051296E-2,1.0390089E-1,7.733328E-2],"categories":[],"categories_nodes":[],"categories_segments":[],"categories_sizes":[],"default_left":[0,0,0,0,0,0,0,0,0,0,0,0,0,0,0,0,0,0,0,0,0,0,0,0,0,0,0,0,0,0,0,0,0,0,0,0,0,0,0,0,0,0,0,0,0,0,0,0,0],"id":7,"left_children":[1,3,5,7,-1,9,11,13,-1,15,17,19,-1,-1,21,23,25,27,29,31,-1,33,-1,35,37,39,41,43,-1,-1,45,-1,47,-1,-1,-1,-1,-1,-1,-1,-1,-1,-1,-1,-1,-1,-1,-1,-1],"loss_changes":[3.6768018E6,1.3357031E6,7.5736E4,6.289622E4,0E0,1.38675E3,1.9143223E4,6.286875E2,0E0,1.9072812E3,2.8775E2,1.7656191E3,0E0,0E0,2.1622075E3,1.0778125E3,1.4195256E4,5.0125E1,2.0069324E3,1.0255469E2,0E0,2.3570099E2,0E0,1.3276875E3,1.799375E2,1.1681484E3,2.9627969E3,1.16875E2,0E0,0E0,1.5793658E2,0E0,6.970703E1,0E0,0E0,0E0,0E0,0E0,0E0,0E0,0E0,0E0,0E0,0E0,0E0,0E0,0E0,0E0,0E0],"parents":[2147483647,0,0,1,1,2,2,3,3,5,5,6,6,7,7,9,9,10,10,11,11,14,14,15,15,16,16,17,17,18,18,19,19,21,21,23,23,24,24,25,25,26,26,27,27,30,30,32,32],"right_children":[2,4,6,8,-1,10,12,14,-1,16,18,20,-1,-1,22,24,26,28,30,32,-1,34,-1,36,38,40,42,44,-1,-1,46,-1,48,-1,-1,-1,-1,-1,-1,-1,-1,-1,-1,-1,-1,-1,-1,-1,-1],"split_conditions":[2.4414062E-4,1E0,1.3927576E6,2.83332E6,7.692876E-2,2E0,2.12993E3,2.3723619E5,7.69126E-2,1.426771E0,1.068286E6,1.026348E0,-7.698303E-2,-7.693889E-2,2.4306536E5,1E0,5.7221134E-4,5E1,1E0,3.7033922E5,-7.8988604E-2,2.8274294E5,-7.7069186E-2,6.0110524E-2,3.9120494E5,8.68726E3,1.4272336E6,1E1,-7.6981656E-2,-7.6899365E-2,8.448E5,-7.293188E-2,4.238727E5,-7.385298E-2,9.011602E-2,-5.6161594E-2,-7.320804E-2,-7.712123E-2,-7.141444E-2,9.170436E-2,-7.9264686E-2,-7.770428E-2,8.610652E-2,-7.500672E-2,-7.6989524E-2,-7.2990574E-2,8.051296E-2,1.0390089E-1,7.733328E-2],"split_indices":[8,12,9,1,0,17,4,9,0,11,9,10,0,0,9,9,10,2,13,1,0,3,0,11,9,9,2,17,0,0,2,0,1,0,0,0,0,0,0,0,0,0,0,0,0,0,0,0,0],"split_type":[0,0,0,0,0,0,0,0,0,0,0,0,0,0,0,0,0,0,0,0,0,0,0,0,0,0,0,0,0,0,0,0,0,0,0,0,0,0,0,0,0,0,0,0,0,0,0,0,0],"sum_hessian":[2.2149618E6,1.2621799E6,9.5278194E5,1.7842803E5,1.0837519E6,9.3967306E5,1.3108864E4,1.714935E5,6.9345264E3,1.6088281E5,7.7879025E5,1.0536855E4,2.5720095E3,1.7020612E5,1.2873771E3,1.4799384E5,1.2888958E4,7.7674306E5,2.0471938E3,1.0355057E4,1.8179869E2,2.9427316E2,9.9310394E2,4.973298E4,9.826087E4,1.7101292E3,1.1178829E4,3.1025175E5,4.6649134E5,1.781982E3,2.6521173E2,1.0496829E1,1.034456E4,2.3062607E1,2.7121054E2,1.7837902E4,3.1895076E4,8.1330336E4,1.6930537E4,1.604366E3,1.05763176E2,1.0896441E4,2.8238724E2,1.3289394E5,1.7735781E5,1.7171696E1,2.4804004E2,2.6231726E2,1.0082242E4],"tree_param":{"num_deleted":"0","num_feature":"18","num_nodes":"49","size_leaf_vector":"1"}},{"base_weights":[-2.8547323E-3,1.089244E0,-1.4374748E0,-1.3774276E0,7.4934654E-2,-1.471312E0,9.050768E-1,-1.493696E0,1.4952596E0,-1.3777941E0,-1.4907273E0,1.4634223E0,-7.4984245E-2,-7.494389E-2,-8.163296E-1,-6.69694E-2,7.491941E-2,-1.229303E0,-1.456878E0,-1.4916887E0,-1.1236842E0,1.5142719E0,-7.676413E-2,1.493879E0,-7.505512E-2,1.4910326E0,-1.2456834E0,-1.465206E0,-1.8977188E-2,-1.4817165E0,-1.4973783E0,-7.490439E-2,1.3722545E0,-6.465213E-2,1.516068E0,8.615549E-2,-7.7408575E-2,-7.568198E-2,1.1330278E-1,-5.3740382E-2,-7.1942106E-2,-5.489242E-2,-7.412132E-2,-7.6013945E-2,8.362393E-2,-6.380818E-2,-7.4258946E-2,-7.496201E-2,-7.247905E-2,-7.081273E-2,7.8128554E-2,7.521367E-2,9.8561674E-2],"categories":[],"categories_nodes":[],"categories_segments":[],"categories_sizes":[],"default_left":[0,0,0,0,0,0,0,0,0,0,0,0,0,0,0,0,0,0,0,0,0,0,0,0,0,0,0,0,0,0,0,0,0,0,0,0,0,0,0,0,0,0,0,0,0,0,0,0,0,0,0,0,0],"id":8,"left_children":[1,3,5,7,-1,9,11,13,15,17,19,21,-1,-1,23,-1,-1,25,27,29,31,33,-1,35,-1,37,39,41,43,45,47,-1,49,-1,51,-1,-1,-1,-1,-1,-1,-1,-1,-1,-1,-1,-1,-1,-1,-1,-1,-1,-1],"loss_changes":[3.375827E6,1.2355866E6,7.382075E4,5.8173094E4,0E0,1.6645E3,1.7807791E4,5.8609375E2,6.21084E1,1.8515312E3,2.66375E2,1.6434727E3,0E0,0E0,2.0163438E3,0E0,0E0,2.4462969E3,1.2330469E3,4.0375E1,1.8619575E3,5.534961E1,0E0,2.0600165E2,0E0,7.6909735E2,1.7980234E3,6.4584375E2,1.5112155E3,1.94E2,4.05E1,0E0,1.4026038E2,0E0,5.347461E1,0E0,0E0,0E0,0E0,0E0,0E0,0E0,0E0,0E0,0E0,0E0,0E0,0E0,0E0,0E0,0E0,0E0,0E0],"parents":[2147483647,0,0,1,1,2,2,3,3,5,5,6,6,7,7,8,8,9,9,10,10,11,11,14,14,17,17,18,18,19,19,20,20,21,21,23,23,25,25,26,26,27,27,28,28,29,29,30,30,32,32,34,34],"right_children":[2,4,6,8,-1,10,12,14,16,18,20,22,-1,-1,24,-1,-1,26,28,30,32,34,-1,36,-1,38,40,42,44,46,48,-1,50,-1,52,-1,-1,-1,-1,-1,-1,-1,-1,-1,-1,-1,-1,-1,-1,-1,-1,-1,-1],"split_conditions":[2.4414062E-4,1E0,1.3927576E6,1.1328647E7,7.4934654E-2,2E0,2.12993E3,2.3723619E5,7.508417E4,1E0,1.068286E6,1.026348E0,-7.4984245E-2,-7.494389E-2,2.4306536E5,-6.69694E-2,7.491941E-2,1E0,3.18508E5,7.8125E-3,1E0,0E0,-7.676413E-2,1.2731753E-1,-7.505512E-2,1E0,5.7221134E-4,8E0,1.4272336E6,4.108473E4,1E0,-7.490439E-2,6.092805E5,-6.465213E-2,7.4864125E6,8.615549E-2,-7.7408575E-2,-7.568198E-2,1.1330278E-1,-5.3740382E-2,-7.1942106E-2,-5.489242E-2,-7.412132E-2,-7.6013945E-2,8.362393E-2,-6.380818E-2,-7.4258946E-2,-7.496201E-2,-7.247905E-2,-7.081273E-2,7.8128554E-2,7.521367E-2,9.8561674E-2],"split_indices":[8,12,9,2,0,17,4,9,9,9,9,10,0,0,9,0,0,16,6,9,13,6,0,10,0,13,10,16,2,5,14,0,2,0,5,0,0,0,0,0,0,0,0,0,0,0,0,0,0,0,0,0,0],"split_type":[0,0,0,0,0,0,0,0,0,0,0,0,0,0,0,0,0,0,0,0,0,0,0,0,0,0,0,0,0,0,0,0,0,0,0,0,0,0,0,0,0,0,0,0,0,0,0,0,0,0,0,0,0],"sum_hessian":[2.154671E6,1.223379E6,9.3129206E5,1.7416175E5,1.0492172E6,9.180319E5,1.326016E4,1.6738747E5,6.7742847E3,1.5783997E5,7.6019194E5,1.0761867E4,2.4982932E3,1.661153E5,1.2721613E3,6.962119E0,6.7673223E3,5.4856598E4,1.0298338E5,7.582026E5,1.9892755E3,1.0582939E4,1.7892822E2,2.9056357E2,9.815978E2,3.2776517E2,5.4528832E4,1.02390266E5,5.931155E2,2.7554422E5,4.8265844E5,1.7301796E3,2.5909595E2,6.2714615E0,1.0576668E4,2.7063644E2,1.9927107E1,6.698607E1,2.607791E2,2.8937062E4,2.559177E4,4.5878877E3,9.7802375E4,3.1430505E2,2.7881046E2,4.571113E3,2.709731E5,4.6453034E5,1.8128086E4,1.6108463E1,2.4298749E2,1.031393E4,2.6273782E2],"tree_param":{"num_deleted":"0","num_feature":"18","num_nodes":"53","size_leaf_vector":"1"}},{"base_weights":[-4.096188E-3,1.0627224E0,-1.4059751E0,-1.3444198E0,7.3134355E-2,-1.4380112E0,6.328254E-1,-1.4577565E0,7.311272E-2,-8.1669134E-1,-1.4419278E0,-7.3676154E-2,1.4692512E0,-7.314346E-2,-1.0591621E0,-1.1110096E0,1.3440627E0,-1.3509986E0,-1.4549516E0,7.310244E-2,7.680171E-2,1.0432454E0,-7.3262714E-2,-1.282826E0,9.7005355E-1,2.2141068E0,-7.5210005E-2,-1.3895314E0,-1.0608426E0,-1.4619985E0,-1.4386232E0,8.469697E-2,-7.204458E-2,9.344527E-3,-7.466608E-2,1.0076789E-1,-7.778548E-2,1.3099857E-1,9.135258E-2,-7.056328E-2,-4.981843E-2,-5.878657E-2,1.2529472E-2,-7.293073E-2,-7.320457E-2,-5.9303552E-2,-7.2137274E-2],"categories":[],"categories_nodes":[],"categories_segments":[],"categories_sizes":[],"default_left":[0,0,0,0,0,0,0,0,0,0,0,0,0,0,0,0,0,0,0,0,0,0,0,0,0,0,0,0,0,0,0,0,0,0,0,0,0,0,0,0,0,0,0,0,0,0,0],"id":9,"left_children":[1,3,5,7,-1,9,11,13,-1,15,17,-1,19,-1,21,23,25,27,29,-1,-1,31,-1,33,35,37,-1,39,41,43,45,-1,-1,-1,-1,-1,-1,-1,-1,-1,-1,-1,-1,-1,-1,-1,-1],"loss_changes":[3.1394568E6,1.1476781E6,5.9250875E4,5.4030594E4,0E0,2.17175E3,2.4727752E4,3.3090625E2,0E0,3.560916E3,1.04875E3,0E0,2.2851562E0,0E0,1.7700396E3,1.7628564E3,1.6671996E3,1.2416719E3,8.7E1,0E0,0E0,5.4537E2,0E0,1.4084717E3,9.9657385E2,7.5628174E1,0E0,8.372031E2,1.9653604E3,1.5E0,2.4175E2,0E0,0E0,0E0,0E0,0E0,0E0,0E0,0E0,0E0,0E0,0E0,0E0,0E0,0E0,0E0,0E0],"parents":[2147483647,0,0,1,1,2,2,3,3,5,5,6,6,7,7,9,9,10,10,12,12,14,14,15,15,16,16,17,17,18,18,21,21,23,23,24,24,25,25,27,27,28,28,29,29,30,30],"right_children":[2,4,6,8,-1,10,12,14,-1,16,18,-1,20,-1,22,24,26,28,30,-1,-1,32,-1,34,36,38,-1,40,42,44,46,-1,-1,-1,-1,-1,-1,-1,-1,-1,-1,-1,-1,-1,-1,-1,-1],"split_conditions":[2.4414062E-4,1E0,2.83332E6,2.83332E6,7.3134355E-2,9E0,3.2770482E6,2.735034E5,7.311272E-2,1.3207516E1,3.9E1,-7.3676154E-2,2.6428E2,-7.314346E-2,2.7950525E5,1.0414398E6,5E1,4.0336378E5,2.0116119E5,7.310244E-2,7.680171E-2,4.213567E4,-7.3262714E-2,1E0,9.7503575E5,1.7554388E1,-7.5210005E-2,2.5723333E0,3.8E1,1.4E1,2.0376756E5,8.469697E-2,-7.204458E-2,9.344527E-3,-7.466608E-2,1.0076789E-1,-7.778548E-2,1.3099857E-1,9.135258E-2,-7.056328E-2,-4.981843E-2,-5.878657E-2,1.2529472E-2,-7.293073E-2,-7.320457E-2,-5.9303552E-2,-7.2137274E-2],"split_indices":[8,12,1,1,0,0,2,7,0,11,0,0,8,0,7,1,2,1,1,0,0,1,0,16,5,11,0,11,0,16,1,0,0,0,0,0,0,0,0,0,0,0,0,0,0,0,0],"split_type":[0,0,0,0,0,0,0,0,0,0,0,0,0,0,0,0,0,0,0,0,0,0,0,0,0,0,0,0,0,0,0,0,0,0,0,0,0,0,0,0,0,0,0,0,0,0,0],"sum_hessian":[2.099196E6,1.1920532E6,9.071427E5,1.6984678E5,1.02220644E6,8.931095E5,1.4033241E4,1.6325488E5,6.5919043E3,5.596058E3,8.8751344E5,3.988423E3,1.0044818E4,1.6118452E5,2.0703618E3,4.925661E3,6.703967E2,1.1120748E5,7.7630594E5,9.088966E3,9.55853E2,3.3486957E2,1.7354923E3,4.5504033E3,3.7525793E2,5.1372845E2,1.5666823E2,9.81668E4,1.3040675E4,5.422135E5,2.3409247E5,2.65645E2,6.9224594E1,5.700256E2,3.980378E3,2.6558533E2,1.0967261E2,2.4782889E2,2.6589957E2,9.3021664E4,5.145136E3,1.1990427E4,1.0502485E3,2.074934E5,3.3472006E5,3.764621E3,2.3032784E5],"tree_param":{"num_deleted":"0","num_feature":"18","num_nodes":"47","size_leaf_vector":"1"}},{"base_weights":[-1.8839984E-3,-1.1344845E0,1.1494881E0,7.631029E-1,-1.2254316E0,1.3221347E0,-1.4038386E0,-1.1658885E0,1.2764971E0,-1.31339E0,-4.6115863E-1,-5.261625E-1,1.4273233E0,1.5289162E0,-1.4188651E0,-7.194675E-2,-1.2697934E-1,7.1426235E-2,-1.0366272E0,-7.154426E-2,-1.1073096E0,1.4243978E0,-1.3952042E0,-1.4094812E0,7.1477465E-2,1.4235231E0,7.147694E-2,1.14037625E-1,-7.2088785E-2,-1.4351957E0,-9.5951796E-1,2.0189064E0,-7.256594E-2,2.2200713E-1,-7.246197E-2,-1.9058311E-1,-1.3653609E0,-7.162552E-2,1.4337597E0,-3.1629926E-1,-1.4228036E0,-7.159279E-2,-8.5494936E-1,1.4183142E0,1.4291127E0,-7.255726E-2,-7.158697E-2,1.2211031E0,-7.159605E-2,-6.310563E-2,1.0255881E-1,7.271383E-2,-7.163464E-2,-6.704032E-2,4.322922E-2,-5.7632E-2,-7.047993E-2,-7.0336185E-2,7.1885616E-2,-7.1899295E-2,6.4441E-2,-7.184701E-2,-6.761039E-2,6.8234384E-2,-7.217603E-2,-7.057059E-2,7.098124E-2,-7.083809E-2,7.1494274E-2,1.4238247E-1,-7.208157E-2],"categories":[],"categories_nodes":[],"categories_segments":[],"categories_sizes":[],"default_left":[0,0,0,0,0,0,0,0,0,0,0,0,0,0,0,0,0,0,0,0,0,0,0,0,0,0,0,0,0,0,0,0,0,0,0,0,0,0,0,0,0,0,0,0,0,0,0,0,0,0,0,0,0,0,0,0,0,0,0,0,0,0,0,0,0,0,0,0,0,0,0],"id":10,"left_children":[1,3,5,7,9,11,13,15,17,19,21,23,25,27,29,-1,31,-1,33,-1,35,37,39,41,-1,43,-1,-1,-1,45,47,49,-1,51,-1,53,55,-1,57,59,61,-1,63,65,67,-1,-1,69,-1,-1,-1,-1,-1,-1,-1,-1,-1,-1,-1,-1,-1,-1,-1,-1,-1,-1,-1,-1,-1,-1,-1],"loss_changes":[2.6664052E6,1.7789E5,4.4697788E5,4.6689E4,6.61225E4,1.84649E5,2.832211E3,2.8108584E3,1.3095238E4,2.1356875E4,1.7879983E5,8.8348836E4,5.375E0,7.355145E2,4.7764844E2,0E0,5.8675947E3,0E0,1.1932344E3,0E0,7.577253E4,9.015547E2,2.0209688E3,4.3566406E2,0E0,7.3125E0,0E0,0E0,0E0,1.0390625E0,2.2646533E3,8.609375E1,0E0,1.159974E3,0E0,8.539571E4,2.3502188E3,0E0,3.783828E2,3.0531897E3,6.384375E1,0E0,1.7904642E3,6.383125E2,3.53E2,0E0,0E0,1.7005051E3,0E0,0E0,0E0,0E0,0E0,0E0,0E0,0E0,0E0,0E0,0E0,0E0,0E0,0E0,0E0,0E0,0E0,0E0,0E0,0E0,0E0,0E0,0E0],"parents":[2147483647,0,0,1,1,2,2,3,3,4,4,5,5,6,6,7,7,8,8,9,9,10,10,11,11,12,12,13,13,14,14,16,16,18,18,20,20,21,21,22,22,23,23,25,25,29,29,30,30,31,31,33,33,35,35,36,36,38,38,39,39,40,40,42,42,43,43,44,44,47,47],"right_children":[2,4,6,8,10,12,14,16,18,20,22,24,26,28,30,-1,32,-1,34,-1,36,38,40,42,-1,44,-1,-1,-1,46,48,50,-1,52,-1,54,56,-1,58,60,62,-1,64,66,68,-1,-1,70,-1,-1,-1,-1,-1,-1,-1,-1,-1,-1,-1,-1,-1,-1,-1,-1,-1,-1,-1,-1,-1,-1,-1],"split_conditions":[3.5346E4,8E0,1.026348E0,1E0,1E0,1E0,-2.645573E5,1.7165775E5,1.026348E0,1E0,4.77637E3,2.83332E6,3.2122062E5,4.0047288E5,7.7334585E6,-7.194675E-2,1.184617E4,7.1426235E-2,7.8125E-3,-7.154426E-2,3.309595E4,0E0,1.171114E4,2.3723619E5,7.1477465E-2,1E0,7.147694E-2,1.14037625E-1,-7.2088785E-2,2E0,1E0,1.5856355E5,-7.256594E-2,1.3314934E5,-7.246197E-2,1E0,6.745531E4,-7.162552E-2,1.5625E-2,9.4731E4,1.3679278E6,-7.159279E-2,2.4306536E5,1E0,1.118E1,-7.255726E-2,-7.158697E-2,8.137229E6,-7.159605E-2,-6.310563E-2,1.0255881E-1,7.271383E-2,-7.163464E-2,-6.704032E-2,4.322922E-2,-5.7632E-2,-7.047993E-2,-7.0336185E-2,7.1885616E-2,-7.1899295E-2,6.4441E-2,-7.184701E-2,-6.761039E-2,6.8234384E-2,-7.217603E-2,-7.057059E-2,7.098124E-2,-7.083809E-2,7.1494274E-2,1.4238247E-1,-7.208157E-2],"split_indices":[6,16,10,10,14,10,7,7,10,15,5,1,1,9,4,0,4,0,9,0,1,7,1,9,0,14,0,0,0,17,17,1,0,5,0,10,4,0,9,7,7,0,9,15,9,0,0,4,0,0,0,0,0,0,0,0,0,0,0,0,0,0,0,0,0,0,0,0,0,0,0],"split_type":[0,0,0,0,0,0,0,0,0,0,0,0,0,0,0,0,0,0,0,0,0,0,0,0,0,0,0,0,0,0,0,0,0,0,0,0,0,0,0,0,0,0,0,0,0,0,0,0,0,0,0,0,0,0,0,0,0,0,0,0,0,0,0,0,0,0,0,0,0,0,0],"sum_hessian":[2.0447172E6,1.03076125E6,1.013956E6,4.7142234E4,9.8361906E5,9.497386E5,6.421735E4,9.909081E3,3.7233152E4,8.820993E5,1.0151972E5,5.113994E4,8.985987E5,3.268043E2,6.3890547E4,7.8464053E3,2.0626758E3,3.493736E4,2.2957954E3,5.617918E5,3.203075E5,3.3630082E4,6.788963E4,3.52288E4,1.5911142E4,3.3118412E5,5.6741456E5,2.610121E2,6.579221E1,6.1694855E4,2.1956929E3,7.869485E2,1.2757273E3,5.668606E2,1.7289348E3,7.03591E4,2.499484E5,1.09312164E2,3.352077E4,1.6937634E3,6.619587E4,3.3860797E4,1.3680034E3,1.715693E5,1.5961484E5,1.0908493E4,5.0786363E4,3.9064975E2,1.805043E3,7.263101E0,7.796854E2,3.250068E2,2.4185382E2,3.366317E4,3.6695926E4,4.3035945E4,2.0691245E5,4.6051094E1,3.347472E4,9.9712244E2,6.966409E2,5.5134652E4,1.1061218E4,2.8640735E2,1.0815961E3,7.889619E1,1.714904E5,4.2794003E1,1.5957205E5,2.4249092E2,1.4815883E2],"tree_param":{"num_deleted":"0","num_feature":"18","num_nodes":"71","size_leaf_vector":"1"}},{"base_weights":[-3.2508867E-3,1.0184423E0,-1.3443567E0,-1.2749344E0,7.004052E-2,-1.3729609E0,7.386621E-1,-1.3786643E0,1.3975294E0,-1.2480081E0,-1.3917509E0,-7.060503E-2,1.4032354E0,7.334076E-2,-1.3956447E0,-5.836829E-2,6.9997266E-2,-1.4079942E0,-1.0907698E0,-1.3955996E0,-1.1719283E0,1.4143836E0,-7.515638E-2,-7.0032105E-2,-1.0098922E0,-7.028214E-2,-1.4610661E0,-4.5599025E-1,-1.2811949E0,-1.3893517E0,-7.014389E-2,1.0703611E0,-1.3233078E0,6.991717E-2,9.656242E-2,4.696646E-2,-7.0161246E-2,-7.823204E-2,-7.1620144E-2,8.817439E-2,-6.662394E-2,3.3327486E-2,-6.520732E-2,-7.012072E-2,-6.8866596E-2,-7.0064455E-2,7.365343E-2,4.2721152E-2,-7.02756E-2],"categories":[],"categories_nodes":[],"categories_segments":[],"categories_sizes":[],"default_left":[0,0,0,0,0,0,0,0,0,0,0,0,0,0,0,0,0,0,0,0,0,0,0,0,0,0,0,0,0,0,0,0,0,0,0,0,0,0,0,0,0,0,0,0,0,0,0,0,0],"id":11,"left_children":[1,3,5,7,-1,9,11,13,15,17,19,-1,21,-1,23,-1,-1,25,27,29,31,33,-1,-1,35,-1,37,39,41,43,-1,45,47,-1,-1,-1,-1,-1,-1,-1,-1,-1,-1,-1,-1,-1,-1,-1,-1],"loss_changes":[2.7192005E6,9.877609E5,5.1131E4,4.4623766E4,0E0,1.9855E3,1.6617889E4,7.488875E3,3.892871E1,2.7820938E3,6.20625E2,0E0,2.898789E2,0E0,2.9525E2,0E0,0E0,4.515625E0,6.7462266E3,3.0625E1,4.3015137E3,7.032031E1,0E0,0E0,1.5146648E3,0E0,4.286621E0,2.5062158E4,1.9202969E3,5.8875E1,0E0,8.0001764E2,2.1257754E3,0E0,0E0,0E0,0E0,0E0,0E0,0E0,0E0,0E0,0E0,0E0,0E0,0E0,0E0,0E0,0E0],"parents":[2147483647,0,0,1,1,2,2,3,3,5,5,6,6,7,7,8,8,9,9,10,10,12,12,14,14,17,17,18,18,19,19,20,20,21,21,24,24,26,26,27,27,28,28,29,29,31,31,32,32],"right_children":[2,4,6,8,-1,10,12,14,16,18,20,-1,22,-1,24,-1,-1,26,28,30,32,34,-1,-1,36,-1,38,40,42,44,-1,46,48,-1,-1,-1,-1,-1,-1,-1,-1,-1,-1,-1,-1,-1,-1,-1,-1],"split_conditions":[2.4414062E-4,1E0,3.18508E5,1.1328647E7,7.004052E-2,3.9E1,1.4272336E6,5E1,1.5859868E-1,2.147668E4,1.3414498E6,-7.060503E-2,6.711336E5,7.334076E-2,2.735034E5,-5.836829E-2,6.9997266E-2,2.2583594E2,4.654433E4,1.6E1,4.77637E3,6.424377E5,-7.515638E-2,-7.0032105E-2,2.7950525E5,-7.028214E-2,4.654433E4,5.7221134E-4,2.4610344E4,1.2E1,-7.014389E-2,9.271442E5,4.4E1,6.991717E-2,9.656242E-2,4.696646E-2,-7.0161246E-2,-7.823204E-2,-7.1620144E-2,8.817439E-2,-6.662394E-2,3.3327486E-2,-6.520732E-2,-7.012072E-2,-6.8866596E-2,-7.0064455E-2,7.365343E-2,4.2721152E-2,-7.02756E-2],"split_indices":[8,10,6,2,0,0,2,2,10,7,8,0,5,0,7,0,0,7,4,16,5,5,0,0,7,0,4,10,7,16,0,2,0,0,0,0,0,0,0,0,0,0,0,0,0,0,0,0,0],"split_type":[0,0,0,0,0,0,0,0,0,0,0,0,0,0,0,0,0,0,0,0,0,0,0,0,0,0,0,0,0,0,0,0,0,0,0,0,0,0,0,0,0,0,0,0,0,0,0,0,0],"sum_hessian":[1.9845282E6,1.1264025E6,8.581258E5,1.6096427E5,9.654382E5,8.4650194E5,1.1623886E4,1.549505E5,6.0137715E3,1.1066386E5,7.3583806E5,2.7435718E3,8.880314E3,9.1864355E2,1.5403186E5,5.1663156E0,6.0086055E3,5.48484E4,5.581546E4,7.231708E5,1.2667261E4,8.846927E3,3.3387413E1,1.5205905E5,1.9728029E3,5.2549504E4,2.2988928E3,1.2880944E4,4.293452E4,3.8923584E5,3.3393497E5,8.006725E2,1.1866588E4,8.58442E3,2.625069E2,3.3097296E2,1.64183E3,4.859262E2,1.8129666E3,3.6463616E3,9.234583E3,4.9965128E2,4.2434867E4,1.8646564E5,2.027702E5,1.1179479E2,6.888777E2,4.3125607E2,1.1435332E4],"tree_param":{"num_deleted":"0","num_feature":"18","num_nodes":"49","size_leaf_vector":"1"}},{"base_weights":[-1.029022E-3,1.0004426E0,-1.3223196E0,1.3707258E0,-1.2624747E0,-1.3531547E0,8.1366056E-1,2.0232317E-1,6.868437E-2,-6.8680435E-2,6.865253E-2,-1.2446924E0,-1.3646338E0,1.3661679E0,-6.901761E-2,7.186508E-2,-6.863008E-2,-9.849052E-1,-1.3474871E0,-1.3655025E0,-1.0451311E0,-6.739177E-2,1.3781765E0,2.0477612E0,-1.022122E0,-1.3628867E0,-8.311404E-1,-1.3676656E0,-1.2795521E0,-6.873039E-2,1.2751971E0,7.144447E-2,6.863692E-2,-6.6596255E-2,1.0747173E-1,-4.0252622E-2,-7.003845E-2,-6.901661E-2,-5.921749E-2,9.148382E-2,-7.029129E-2,-6.776785E-2,-6.880746E-2,9.0636306E-2,-6.889618E-2,-6.590945E-2,7.412621E-2],"categories":[],"categories_nodes":[],"categories_segments":[],"categories_sizes":[],"default_left":[0,0,0,0,0,0,0,0,0,0,0,0,0,0,0,0,0,0,0,0,0,0,0,0,0,0,0,0,0,0,0,0,0,0,0,0,0,0,0,0,0,0,0,0,0,0,0],"id":12,"left_children":[1,3,5,7,9,11,13,15,-1,-1,-1,17,19,21,-1,-1,-1,23,25,27,29,-1,31,33,35,37,39,41,43,-1,45,-1,-1,-1,-1,-1,-1,-1,-1,-1,-1,-1,-1,-1,-1,-1,-1],"loss_changes":[2.5518742E6,9.192194E5,5.47655E4,3.262125E3,4.518558E4,1.0185E3,1.4346129E4,4.640743E3,0E0,0E0,0E0,2.0936484E3,2.04E2,3.0995703E2,0E0,0E0,0E0,2.5129824E3,4.4560938E2,1.35375E2,1.541731E3,0E0,3.5546875E-1,9.572705E1,1.805123E3,1.68125E2,2.4960366E3,7.3125E1,5.5275957E3,0E0,1.3689957E2,0E0,0E0,0E0,0E0,0E0,0E0,0E0,0E0,0E0,0E0,0E0,0E0,0E0,0E0,0E0,0E0],"parents":[2147483647,0,0,1,1,2,2,3,3,4,4,5,5,6,6,7,7,11,11,12,12,13,13,17,17,18,18,19,19,20,20,22,22,23,23,24,24,25,25,26,26,27,27,28,28,30,30],"right_children":[2,4,6,8,10,12,14,16,-1,-1,-1,18,20,22,-1,-1,-1,24,26,28,30,-1,32,34,36,38,40,42,44,-1,46,-1,-1,-1,-1,-1,-1,-1,-1,-1,-1,-1,-1,-1,-1,-1,-1],"split_conditions":[2.4414062E-4,4.0924E2,1.3927576E6,1E0,2.83332E6,1E0,4.77637E3,5.7221134E-4,6.868437E-2,-6.8680435E-2,6.865253E-2,5E-1,1.068286E6,2.83332E6,-6.901761E-2,7.186508E-2,-6.863008E-2,1E0,1.3207516E1,5.1686006E0,1E0,-6.739177E-2,8E0,1.8829428E1,4.577E3,6.358191E5,8.68726E3,5.7221134E-4,5.7221134E-4,-6.873039E-2,8.448E5,7.144447E-2,6.863692E-2,-6.6596255E-2,1.0747173E-1,-4.0252622E-2,-7.003845E-2,-6.901661E-2,-5.921749E-2,9.148382E-2,-7.029129E-2,-6.776785E-2,-6.880746E-2,9.0636306E-2,-6.889618E-2,-6.590945E-2,7.412621E-2],"split_indices":[8,3,9,10,1,17,5,10,0,0,0,9,9,1,0,0,0,16,11,11,13,0,6,10,2,7,9,10,10,0,2,0,0,0,0,0,0,0,0,0,0,0,0,0,0,0,0],"split_type":[0,0,0,0,0,0,0,0,0,0,0,0,0,0,0,0,0,0,0,0,0,0,0,0,0,0,0,0,0,0,0,0,0,0,0,0,0,0,0,0,0,0,0,0,0,0,0],"sum_hessian":[1.9285096E6,1.0970222E6,8.314874E5,9.427584E5,1.542639E5,8.1965525E5,1.1832154E4,2.3839707E3,9.403744E5,1.4802264E5,6.241259E3,7.845724E4,7.41198E5,9.452261E3,2.379893E3,1.3362781E3,1.0476926E3,2.2246473E4,5.6210773E4,7.391846E5,2.0133628E3,4.1112244E1,9.411148E3,2.6901147E2,2.197746E4,5.4581105E4,1.629668E3,7.210223E5,1.8162314E4,1.7634159E3,2.4994685E2,8.8432166E2,8.526827E3,7.4743886E0,2.6153708E2,1.3971377E4,8.0060835E3,4.971588E4,4.8652246E3,2.8904053E2,1.3406274E3,2.9426E5,4.2676228E5,5.5939746E2,1.7602918E4,1.8070356E1,2.318765E2],"tree_param":{"num_deleted":"0","num_feature":"18","num_nodes":"47","size_leaf_vector":"1"}},{"base_weights":[-3.4899058E-4,9.8220134E-1,-1.2935117E0,-1.2101675E0,6.744456E-2,-1.3246092E0,8.217153E-1,-1.3271344E0,6.740791E-2,-1.347299E0,-1.2965516E0,1.313877E0,-6.7610875E-2,7.0040725E-2,-1.343488E0,-1.3487394E0,7.108365E-2,-4.670063E-3,-1.2993687E0,1.3590577E0,-6.871821E-2,-6.743773E-2,-6.7344546E-1,-1.3508561E0,-1.0670054E0,1.8406285E-1,-6.805786E-2,-1.1904039E0,-1.3230782E0,-6.459513E-2,1.3616885E0,6.7129724E-2,-6.755007E-2,-6.83656E-2,-6.748139E-2,7.3406085E-2,-6.7942105E-2,8.441289E-2,-6.7854665E-2,-4.9744673E-2,-6.631868E-2,8.549403E-2,6.758573E-2],"categories":[],"categories_nodes":[],"categories_segments":[],"categories_sizes":[],"default_left":[0,0,0,0,0,0,0,0,0,0,0,0,0,0,0,0,0,0,0,0,0,0,0,0,0,0,0,0,0,0,0,0,0,0,0,0,0,0,0,0,0,0,0],"id":13,"left_children":[1,3,5,7,-1,9,11,13,-1,15,17,19,-1,-1,21,23,-1,25,27,29,-1,-1,31,33,35,-1,-1,37,39,-1,41,-1,-1,-1,-1,-1,-1,-1,-1,-1,-1,-1,-1],"loss_changes":[2.3728392E6,8.5311856E5,5.3037875E4,4.5504266E4,0E0,5.0375E2,1.2501515E4,6.4889688E3,0E0,1.754E3,1.2929375E3,1.1589473E3,0E0,0E0,5.0896875E2,2.601875E2,0E0,3.875737E3,9.14125E2,6.711328E1,0E0,0E0,1.5446421E3,6.75E0,2.4281619E3,0E0,0E0,3.0409227E4,3.1334375E2,0E0,2.9892578E1,0E0,0E0,0E0,0E0,0E0,0E0,0E0,0E0,0E0,0E0,0E0,0E0],"parents":[2147483647,0,0,1,1,2,2,3,3,5,5,6,6,7,7,9,9,10,10,11,11,14,14,15,15,17,17,18,18,19,19,22,22,23,23,24,24,27,27,28,28,30,30],"right_children":[2,4,6,8,-1,10,12,14,-1,16,18,20,-1,-1,22,24,-1,26,28,30,-1,-1,32,34,36,-1,-1,38,40,-1,42,-1,-1,-1,-1,-1,-1,-1,-1,-1,-1,-1,-1],"split_conditions":[2.4414062E-4,1E0,1.3927576E6,2.83332E6,6.744456E-2,3.6930875E4,2.12993E3,5E1,6.740791E-2,1.2208852E6,4.108473E4,1.026348E0,-6.7610875E-2,7.0040725E-2,2.3723619E5,1E0,7.108365E-2,5.7221134E-4,4.654433E4,3.7768175E5,-6.871821E-2,-6.743773E-2,2.4306536E5,1E0,-2.645573E5,1.8406285E-1,-6.805786E-2,5.7221134E-4,3.999275E4,-6.459513E-2,4.238727E5,6.7129724E-2,-6.755007E-2,-6.83656E-2,-6.748139E-2,7.3406085E-2,-6.7942105E-2,8.441289E-2,-6.7854665E-2,-4.9744673E-2,-6.631868E-2,8.549403E-2,6.758573E-2],"split_indices":[8,10,9,1,0,7,4,2,0,1,5,10,0,0,9,14,0,10,4,1,0,0,9,9,7,0,0,10,7,0,1,0,0,0,0,0,0,0,0,0,0,0,0],"split_type":[0,0,0,0,0,0,0,0,0,0,0,0,0,0,0,0,0,0,0,0,0,0,0,0,0,0,0,0,0,0,0,0,0,0,0,0,0,0,0,0,0,0,0],"sum_hessian":[1.8674966E6,1.0611959E6,8.0630075E5,1.5205938E5,9.091365E5,7.94619E5,1.1681806E4,1.4541166E5,6.647716E3,4.393061E5,3.553129E5,9.525701E3,2.1561042E3,8.6597833E2,1.4454569E5,4.3907822E5,2.2785258E2,7.732052E2,3.545397E5,9.368773E3,1.5692734E2,1.4341722E5,1.1284656E3,4.357999E5,3.2783162E3,2.0752322E2,5.65682E2,6.3367652E4,2.9117203E5,8.764542E0,9.360009E3,2.835739E2,8.4489166E2,3.0185287E4,4.0561462E5,3.3797964E2,2.9403367E3,3.4679392E3,5.989971E4,2.8981445E3,2.882739E5,2.5562634E2,9.104383E3],"tree_param":{"num_deleted":"0","num_feature":"18","num_nodes":"43","size_leaf_vector":"1"}},{"base_weights":[-2.890063E-3,9.654202E-1,-1.2781316E0,-1.2010309E0,6.6307075E-2,-1.3021146E0,6.385478E-1,-1.3207701E0,6.627206E-2,-1.1975166E0,-1.3178133E0,-6.6779956E-2,1.335156E0,-6.630102E-2,-9.2091537E-1,-1.334407E0,-1.0134051E0,-1.3211175E0,-7.314978E-1,1.3458909E0,-6.977229E-2,9.546669E-1,-6.6431284E-2,-6.648996E-2,-6.793158E-2,-4.3778655E-1,-1.1913078E0,-1.323364E0,-1.141249E0,-6.6663064E-2,6.84666E-2,1.3216311E0,9.84118E-2,7.724964E-2,-6.726542E-2,7.315593E-2,-6.1413724E-2,-6.2466096E-2,-8.014425E-3,-6.6394664E-2,-6.503244E-2,4.4117E-2,-6.257622E-2,-6.579067E-2,6.6263884E-2],"categories":[],"categories_nodes":[],"categories_segments":[],"categories_sizes":[],"default_left":[0,0,0,0,0,0,0,0,0,0,0,0,0,0,0,0,0,0,0,0,0,0,0,0,0,0,0,0,0,0,0,0,0,0,0,0,0,0,0,0,0,0,0,0,0],"id":14,"left_children":[1,3,5,7,-1,9,11,13,-1,15,17,-1,19,-1,21,23,25,27,29,31,-1,33,-1,-1,-1,35,37,39,41,-1,-1,43,-1,-1,-1,-1,-1,-1,-1,-1,-1,-1,-1,-1,-1],"loss_changes":[2.2282075E6,8.015423E5,3.5800625E4,4.429061E4,0E0,1.261375E3,1.3238363E4,2.9196875E2,0E0,2.5285312E3,1.294375E3,0E0,2.104375E2,0E0,1.3892654E3,4.359375E0,4.383758E3,2.66875E2,4.7429517E3,1.0408203E2,0E0,4.428711E2,0E0,0E0,0E0,1.5193739E4,1.9559336E3,6.5625E1,1.833544E3,0E0,0E0,6.7387695E1,0E0,0E0,0E0,0E0,0E0,0E0,0E0,0E0,0E0,0E0,0E0,0E0,0E0],"parents":[2147483647,0,0,1,1,2,2,3,3,5,5,6,6,7,7,9,9,10,10,12,12,14,14,15,15,16,16,17,17,18,18,19,19,21,21,25,25,26,26,27,27,28,28,31,31],"right_children":[2,4,6,8,-1,10,12,14,-1,16,18,-1,20,-1,22,24,26,28,30,32,-1,34,-1,-1,-1,36,38,40,42,-1,-1,44,-1,-1,-1,-1,-1,-1,-1,-1,-1,-1,-1,-1,-1],"split_conditions":[2.4414062E-4,1E0,3.18508E5,2.83332E6,6.6307075E-2,3.9E1,1.4272336E6,2.735034E5,6.627206E-2,1E0,3.0186322E6,-6.6779956E-2,1.9713084E5,-6.630102E-2,2.7950525E5,1E0,4.2254E4,1.3414498E6,3.234282E5,1.9264448E5,-6.977229E-2,4.213567E4,-6.6431284E-2,-6.648996E-2,-6.793158E-2,8E0,2E1,2.8848206E5,4.4E1,-6.6663064E-2,6.84666E-2,4.8434215E6,9.84118E-2,7.724964E-2,-6.726542E-2,7.315593E-2,-6.1413724E-2,-6.2466096E-2,-8.014425E-3,-6.6394664E-2,-6.503244E-2,4.4117E-2,-6.257622E-2,-6.579067E-2,6.6263884E-2],"split_indices":[8,12,6,1,0,0,2,7,0,15,8,0,4,0,7,14,4,8,2,4,0,1,0,0,0,6,16,1,0,0,0,2,0,0,0,0,0,0,0,0,0,0,0,0,0],"split_type":[0,0,0,0,0,0,0,0,0,0,0,0,0,0,0,0,0,0,0,0,0,0,0,0,0,0,0,0,0,0,0,0,0,0,0,0,0,0,0,0,0,0,0,0,0],"sum_hessian":[1.8044636E6,1.02566256E6,7.78801E5,1.4639972E5,8.792629E5,7.691768E5,9.624154E3,1.3977572E5,6.623997E3,1.0038819E5,6.687886E5,2.5099744E3,7.11418E3,1.3796167E5,1.8140515E3,5.757401E4,4.281417E4,6.650394E5,3.7492927E3,7.0868633E3,2.7316963E1,3.2363818E2,1.4904133E3,4.8423125E4,9.150887E3,1.0109166E4,3.2705006E4,6.5682894E5,8.210448E3,2.9147905E3,8.345021E2,6.824135E3,2.627287E2,2.5783292E2,6.580525E1,2.9688716E3,7.1402944E3,3.0962477E4,1.7425284E3,5.4758344E5,1.0924545E5,4.238971E2,7.786551E3,8.887625E0,6.815247E3],"tree_param":{"num_deleted":"0","num_feature":"18","num_nodes":"45","size_leaf_vector":"1"}},{"base_weights":[2.4396277E-3,9.518039E-1,-1.2525338E0,-1.2054671E0,6.526185E-2,-1.2774026E0,7.0702636E-1,-1.2998866E0,6.5231636E-2,-1.1540511E0,-1.2959335E0,1.2932414E0,-1.0101317E0,-6.525478E-2,-6.3906574E-1,-1.3113457E0,-9.996536E-1,-1.2829272E0,-1.3045268E0,-6.4163916E-2,6.5398164E-2,6.242789E-1,-6.55423E-2,1.2780509E0,-6.5357134E-2,-1.3815945E0,-6.544705E-2,-1.1048911E0,-4.3712458E-1,-1.2500701E0,-6.533375E-2,-6.534692E-2,-1.2594813E0,-6.503387E-2,1.1859578E0,-6.669584E-2,7.4784294E-2,-7.5493336E-2,-6.720716E-2,3.4747273E-2,-5.6352135E-2,8.824407E-2,-5.8714747E-2,-6.341321E-2,-2.9899377E-2,-1.9774733E-2,-6.539864E-2,8.0139875E-2,-6.401431E-2],"categories":[],"categories_nodes":[],"categories_segments":[],"categories_sizes":[],"default_left":[0,0,0,0,0,0,0,0,0,0,0,0,0,0,0,0,0,0,0,0,0,0,0,0,0,0,0,0,0,0,0,0,0,0,0,0,0,0,0,0,0,0,0,0,0,0,0,0,0],"id":15,"left_children":[1,3,5,7,-1,9,11,13,-1,15,17,19,21,-1,23,25,27,29,31,-1,-1,33,-1,35,-1,37,-1,39,41,43,-1,-1,45,-1,47,-1,-1,-1,-1,-1,-1,-1,-1,-1,-1,-1,-1,-1,-1],"loss_changes":[2.0840821E6,7.5930544E5,3.6713875E4,3.3227E4,0E0,1.698625E3,9.505604E3,4.6404688E2,0E0,2.358336E3,7.0375E1,2.6868945E2,1.1821677E3,0E0,1.3577631E3,6.046875E0,2.9025703E3,1.9890625E2,4.0375E1,0E0,0E0,4.0603143E2,0E0,1.5781711E2,0E0,5.244873E0,0E0,1.6478984E3,1.25506455E4,1.280375E3,0E0,0E0,8.295117E2,0E0,3.0039417E2,0E0,0E0,0E0,0E0,0E0,0E0,0E0,0E0,0E0,0E0,0E0,0E0,0E0,0E0],"parents":[2147483647,0,0,1,1,2,2,3,3,5,5,6,6,7,7,9,9,10,10,11,11,12,12,14,14,15,15,16,16,17,17,18,18,21,21,23,23,25,25,27,27,28,28,29,29,32,32,34,34],"right_children":[2,4,6,8,-1,10,12,14,-1,16,18,20,22,-1,24,26,28,30,32,-1,-1,34,-1,36,-1,38,-1,40,42,44,-1,-1,46,-1,48,-1,-1,-1,-1,-1,-1,-1,-1,-1,-1,-1,-1,-1,-1],"split_conditions":[2.4414062E-4,1E0,1.3927576E6,2.83332E6,6.526185E-2,3.9E1,4.77637E3,2.3723619E5,6.5231636E-2,2.147668E4,5.7221134E-4,2.83332E6,8E0,-6.525478E-2,2.4306536E5,1E0,1E0,2.32E2,5.1500412E5,-6.4163916E-2,6.5398164E-2,4.1339756E5,-6.55423E-2,2.8274294E5,-6.5357134E-2,5.896939E4,-6.544705E-2,2.4610344E4,5.7221134E-4,2.3E2,-6.533375E-2,-6.534692E-2,4.77637E3,-6.503387E-2,4.238727E5,-6.669584E-2,7.4784294E-2,-7.5493336E-2,-6.720716E-2,3.4747273E-2,-5.6352135E-2,8.824407E-2,-5.8714747E-2,-6.341321E-2,-2.9899377E-2,-1.9774733E-2,-6.539864E-2,8.0139875E-2,-6.401431E-2],"split_indices":[8,12,9,1,0,0,5,9,0,7,10,1,0,0,9,9,13,0,1,0,0,1,0,3,0,5,0,7,10,0,0,0,5,0,1,0,0,0,0,0,0,0,0,0,0,0,0,0,0],"split_type":[0,0,0,0,0,0,0,0,0,0,0,0,0,0,0,0,0,0,0,0,0,0,0,0,0,0,0,0,0,0,0,0,0,0,0,0,0,0,0,0,0,0,0,0,0,0,0,0,0],"sum_hessian":[1.74923E6,9.958717E5,7.533583E5,1.4018895E5,8.5568275E5,7.4391756E5,9.440729E3,1.3510731E5,5.081648E3,9.716955E4,6.4674806E5,7.038263E3,2.402465E3,1.3404952E5,1.0577987E3,4.812914E4,4.9040406E4,2.5736923E5,3.893788E5,3.9458996E1,6.998804E3,3.7311914E2,2.0293458E3,2.7308627E2,7.847124E2,1.5726823E3,4.655646E4,4.1310863E4,7.7295435E3,1.0799981E5,1.4936944E5,3.6956412E5,1.9814658E4,8.394241E1,2.8917673E2,2.0574211E1,2.5251207E2,3.459173E2,1.226765E3,5.018308E2,4.0809035E4,1.9382512E3,5.791292E3,1.0506718E5,2.9326292E3,1.0536006E3,1.8761059E4,2.477014E2,4.147534E1],"tree_param":{"num_deleted":"0","num_feature":"18","num_nodes":"49","size_leaf_vector":"1"}},{"base_weights":[1.9355684E-3,9.3680567E-1,-1.2277054E0,-1.1892116E0,6.4297564E-2,-1.255345E0,7.5370973E-1,-6.4294964E-2,6.416052E-2,-1.12257E0,-1.275433E0,1.2482709E0,-6.445554E-2,-1.2712209E0,-9.7696924E-1,-1.2764003E0,-9.187464E-1,1.2718303E0,-6.329752E-2,-1.2914633E0,4.674907E-1,-4.708872E-1,-1.1228619E0,-1.2802613E0,-1.2402178E0,-6.4317755E-2,1.3197734E0,-6.1546624E-2,1.2784436E0,-6.78437E-2,-6.446047E-2,1.12739205E-1,-6.537061E-2,7.440907E-2,-5.974529E-2,3.8784564E-2,-5.7396527E-2,-6.3426614E-2,-6.437712E-2,-6.280525E-2,1.1126526E-1,-5.951112E-2,7.26344E-2,4.9639992E-2,6.447368E-2],"categories":[],"categories_nodes":[],"categories_segments":[],"categories_sizes":[],"default_left":[0,0,0,0,0,0,0,0,0,0,0,0,0,0,0,0,0,0,0,0,0,0,0,0,0,0,0,0,0,0,0,0,0,0,0,0,0,0,0,0,0,0,0,0,0],"id":16,"left_children":[1,3,5,7,-1,9,11,-1,-1,13,15,17,-1,19,21,23,25,27,-1,29,31,33,35,37,39,-1,41,-1,43,-1,-1,-1,-1,-1,-1,-1,-1,-1,-1,-1,-1,-1,-1,-1,-1],"loss_changes":[1.9404251E6,7.1180344E5,3.9928E4,3.2337469E4,0E0,1.916E3,1.013545E4,0E0,0E0,2.0437891E3,2.14125E2,4.7998145E2,0E0,1.64625E3,3.5243398E3,8.5125E1,1.3949769E3,1.340166E2,0E0,4.8125E0,1.7120753E3,1.515783E4,1.7646953E3,4.61875E1,3.3109297E3,0E0,8.158322E1,0E0,2.3637695E1,0E0,0E0,0E0,0E0,0E0,0E0,0E0,0E0,0E0,0E0,0E0,0E0,0E0,0E0,0E0,0E0],"parents":[2147483647,0,0,1,1,2,2,3,3,5,5,6,6,9,9,10,10,11,11,13,13,14,14,15,15,16,16,17,17,19,19,20,20,21,21,22,22,23,23,24,24,26,26,28,28],"right_children":[2,4,6,8,-1,10,12,-1,-1,14,16,18,-1,20,22,24,26,28,-1,30,32,34,36,38,40,-1,42,-1,44,-1,-1,-1,-1,-1,-1,-1,-1,-1,-1,-1,-1,-1,-1,-1,-1],"split_conditions":[2.4414062E-4,1E0,1.3927576E6,1.1328647E7,6.4297564E-2,3.9E1,2.12993E3,-6.4294964E-2,6.416052E-2,2.147668E4,1.068286E6,9.799204E6,-6.445554E-2,7.2771E4,4.2254E4,1E0,1E0,0E0,-6.329752E-2,1E0,7.9478E4,5E1,2.4610344E4,5E1,5.292002E5,-6.4317755E-2,8.448E5,-6.1546624E-2,1.5729242E6,-6.78437E-2,-6.446047E-2,1.12739205E-1,-6.537061E-2,7.440907E-2,-5.974529E-2,3.8784564E-2,-5.7396527E-2,-6.3426614E-2,-6.437712E-2,-6.280525E-2,1.1126526E-1,-5.951112E-2,7.26344E-2,4.9639992E-2,6.447368E-2],"split_indices":[8,12,9,2,0,0,4,0,0,7,9,5,0,6,4,14,13,6,0,9,2,2,7,2,3,0,2,0,2,0,0,0,0,0,0,0,0,0,0,0,0,0,0,0,0],"split_type":[0,0,0,0,0,0,0,0,0,0,0,0,0,0,0,0,0,0,0,0,0,0,0,0,0,0,0,0,0,0,0,0,0,0,0,0,0,0,0,0,0,0,0,0,0],"sum_hessian":[1.6879781E6,9.589267E5,7.2905144E5,1.3526547E5,8.236612E5,7.190219E5,1.0029534E4,1.3017529E5,5.0901753E3,9.449595E4,6.2452594E5,8.0750303E3,1.9545044E3,4.6754062E4,4.774189E4,6.228338E5,1.6921389E3,8.0005947E3,7.443523E1,4.621632E4,5.3774084E2,1.068432E4,3.705757E4,5.6274744E5,6.0086367E4,1.4538573E3,2.382817E2,2.0557188E1,7.9800376E3,1.5179296E3,4.469839E4,2.6782855E2,2.6991226E2,2.882792E3,7.8015283E3,4.82491E2,3.657508E4,2.1561053E5,3.471369E5,5.9812832E4,2.735354E2,1.1545523E1,2.2673618E2,3.0041074E2,7.679627E3],"tree_param":{"num_deleted":"0","num_feature":"18","num_nodes":"45","size_leaf_vector":"1"}},{"base_weights":[2.8981217E-3,9.253999E-1,-1.2182649E0,-1.1546419E0,1.2681693E0,-1.2437316E0,7.1038395E-1,-1.2625316E0,6.338291E-2,6.557716E-2,6.340526E-2,-1.1102523E0,-1.2639787E0,1.2265502E0,-6.3550755E-2,-6.340123E-2,-5.80679E-1,-8.903445E-1,-1.2188188E0,-1.2649549E0,-9.008819E-1,1.276403E0,-6.49796E-2,1.2830976E0,-6.348312E-2,-5.1200557E-1,-1.0871756E0,-8.4099114E-1,-1.2421616E0,-1.2666174E0,-1.2101797E0,-6.3419275E-2,1.2793006E0,-6.126663E-2,1.2793659E0,-6.864443E-2,7.381456E-2,-3.274024E-2,4.8716296E-2,-6.2090367E-2,-1.869168E-2,-5.257351E-2,4.9039662E-2,-6.285076E-2,-4.309804E-2,-6.349092E-2,-6.2339183E-2,-2.8480852E-2,-6.345628E-2,-5.8953077E-2,7.102225E-2,7.6524764E-2,6.3519776E-2],"categories":[],"categories_nodes":[],"categories_segments":[],"categories_sizes":[],"default_left":[0,0,0,0,0,0,0,0,0,0,0,0,0,0,0,0,0,0,0,0,0,0,0,0,0,0,0,0,0,0,0,0,0,0,0,0,0,0,0,0,0,0,0,0,0,0,0,0,0,0,0,0,0],"id":17,"left_children":[1,3,5,7,9,11,13,15,-1,-1,-1,17,19,21,-1,-1,23,25,27,29,31,33,-1,35,-1,37,39,41,43,45,47,-1,49,-1,51,-1,-1,-1,-1,-1,-1,-1,-1,-1,-1,-1,-1,-1,-1,-1,-1,-1,-1],"loss_changes":[1.837553E6,6.6250775E5,3.4478438E4,3.4358062E4,2.5E-1,1.870625E3,9.358251E3,4.7046875E2,0E0,0E0,0E0,2.1774375E3,2.11875E2,9.1575977E2,0E0,0E0,1.2957135E3,2.2457266E3,5.375625E2,5.28125E1,1.2969509E3,5.4339844E1,0E0,1.4183762E2,0E0,2.1921301E3,2.1880352E3,1.3653901E3,3.236172E2,3.5125E1,6.672871E2,0E0,8.27771E1,0E0,1.3793945E1,0E0,0E0,0E0,0E0,0E0,0E0,0E0,0E0,0E0,0E0,0E0,0E0,0E0,0E0,0E0,0E0,0E0,0E0],"parents":[2147483647,0,0,1,1,2,2,3,3,4,4,5,5,6,6,7,7,11,11,12,12,13,13,16,16,17,17,18,18,19,19,20,20,21,21,23,23,25,25,26,26,27,27,28,28,29,29,30,30,32,32,34,34],"right_children":[2,4,6,8,10,12,14,16,-1,-1,-1,18,20,22,-1,-1,24,26,28,30,32,34,-1,36,-1,38,40,42,44,46,48,-1,50,-1,52,-1,-1,-1,-1,-1,-1,-1,-1,-1,-1,-1,-1,-1,-1,-1,-1,-1,-1],"split_conditions":[2.4414062E-4,1E0,1.3927576E6,2.83332E6,8E0,3.9E1,2.12993E3,2.3723619E5,6.338291E-2,6.557716E-2,6.340526E-2,1E0,1.068286E6,1.026348E0,-6.3550755E-2,-6.340123E-2,2.4306536E5,6.0110524E-2,9E0,2.2E1,1E0,3.7033922E5,-6.49796E-2,2.735034E5,-6.348312E-2,2E1,1.426771E0,1.3207516E1,7.2771E4,3.3201294E5,9.5E1,-6.3419275E-2,7.0527044E5,-6.126663E-2,4.238727E5,-6.864443E-2,7.381456E-2,-3.274024E-2,4.8716296E-2,-6.2090367E-2,-1.869168E-2,-5.257351E-2,4.9039662E-2,-6.285076E-2,-4.309804E-2,-6.349092E-2,-6.2339183E-2,-2.8480852E-2,-6.345628E-2,-5.8953077E-2,7.102225E-2,7.6524764E-2,6.3519776E-2],"split_indices":[8,12,9,1,6,0,4,9,0,0,0,9,9,10,0,0,9,11,0,16,13,1,0,7,0,16,11,11,6,1,0,0,3,0,1,0,0,0,0,0,0,0,0,0,0,0,0,0,0,0,0,0,0],"split_type":[0,0,0,0,0,0,0,0,0,0,0,0,0,0,0,0,0,0,0,0,0,0,0,0,0,0,0,0,0,0,0,0,0,0,0,0,0,0,0,0,0,0,0,0,0,0,0,0,0,0,0,0,0],"sum_hessian":[1.6311674E6,9.2921325E5,7.019542E5,1.314609E5,7.977523E5,6.9280644E5,9.147733E3,1.2585577E5,5.60513E3,1.1444971E3,7.966078E5,9.125643E4,6.0155E5,7.2575337E3,1.8901993E3,1.2484901E5,1.00676764E3,3.0165201E4,6.1091227E4,5.999343E5,1.6156865E3,7.1176045E3,1.3992961E2,2.7145212E2,7.3531555E2,1.0324351E4,1.984085E4,3.5571184E3,5.753411E4,5.822389E5,1.769546E4,1.383021E3,2.3266553E2,7.891889E0,7.1097124E3,1.7957144E1,2.5349498E2,9.419956E3,9.0439496E2,1.6305428E4,3.5354219E3,3.1891401E3,3.679782E2,5.536844E4,2.1656694E3,5.0127094E5,8.096791E4,1.4921974E3,1.6203265E4,1.2195205E1,2.2047032E2,2.3896541E2,6.870747E3],"tree_param":{"num_deleted":"0","num_feature":"18","num_nodes":"53","size_leaf_vector":"1"}},{"base_weights":[2.9171547E-3,9.1299146E-1,-1.1967152E0,-1.1205609E0,6.2586375E-2,-1.2236452E0,7.3111504E-1,-1.2460871E0,6.2554345E-2,-1.0811043E0,-1.2454588E0,1.2120081E0,-6.2713355E-2,-6.257789E-2,-5.6609845E-1,-1.2358876E0,-9.321188E-1,-1.24642E0,-8.8947123E-1,1.2351648E0,-6.1550617E-2,1.2223573E0,-6.264642E-2,-1.2569816E0,1.1285227E-1,-4.5603114E-1,-1.0753134E0,-1.248066E0,-1.1923661E0,1.2494974E0,-6.259098E-2,-6.4720996E-2,1.2535608E0,-6.402557E-2,7.1680054E-2,-6.6105925E-2,-6.274194E-2,8.776601E-2,-6.388174E-2,-6.5467685E-2,-8.5774865E-3,3.679507E-2,-5.5056263E-2,-6.255421E-2,-6.146885E-2,-2.758581E-2,-6.262873E-2,-5.811094E-2,6.955387E-2,6.2280495E-2,7.454564E-2],"categories":[],"categories_nodes":[],"categories_segments":[],"categories_sizes":[],"default_left":[0,0,0,0,0,0,0,0,0,0,0,0,0,0,0,0,0,0,0,0,0,0,0,0,0,0,0,0,0,0,0,0,0,0,0,0,0,0,0,0,0,0,0,0,0,0,0,0,0,0,0],"id":18,"left_children":[1,3,5,7,-1,9,11,13,-1,15,17,19,-1,-1,21,23,25,27,29,31,-1,33,-1,35,37,39,41,43,45,47,-1,-1,49,-1,-1,-1,-1,-1,-1,-1,-1,-1,-1,-1,-1,-1,-1,-1,-1,-1,-1],"loss_changes":[1.7155596E6,6.154952E5,3.5192625E4,3.798439E4,0E0,2.077125E3,8.918076E3,4.4985938E2,0E0,2.0449141E3,1.97125E2,4.2686523E2,0E0,0E0,1.1918796E3,1.2383438E3,3.0820781E3,4.96875E1,1.2144265E3,3.4823438E2,0E0,1.4426187E2,0E0,4.0625E0,1.5346711E3,2.538294E3,1.6260078E3,2.9875E1,6.591289E2,7.9201294E1,0E0,0E0,1.1826172E1,0E0,0E0,0E0,0E0,0E0,0E0,0E0,0E0,0E0,0E0,0E0,0E0,0E0,0E0,0E0,0E0,0E0,0E0],"parents":[2147483647,0,0,1,1,2,2,3,3,5,5,6,6,7,7,9,9,10,10,11,11,14,14,15,15,16,16,17,17,18,18,19,19,21,21,23,23,24,24,25,25,26,26,27,27,28,28,29,29,32,32],"right_children":[2,4,6,8,-1,10,12,14,-1,16,18,20,-1,-1,22,24,26,28,30,32,-1,34,-1,36,38,40,42,44,46,48,-1,-1,50,-1,-1,-1,-1,-1,-1,-1,-1,-1,-1,-1,-1,-1,-1,-1,-1,-1,-1],"split_conditions":[2.4414062E-4,1E0,1.3927576E6,2.83332E6,6.2586375E-2,3.9E1,2.12993E3,2.3723619E5,6.2554345E-2,2.147668E4,1.068286E6,9.799204E6,-6.2713355E-2,-6.257789E-2,2.4306536E5,1E0,4.654433E4,2.2E1,2.12993E3,4.1339756E5,-6.1550617E-2,2.8274294E5,-6.264642E-2,1E0,-2.645573E5,1.1205271E5,2.4610344E4,3.3201294E5,9.5E1,7.0527044E5,-6.259098E-2,-6.4720996E-2,8.71499E6,-6.402557E-2,7.1680054E-2,-6.6105925E-2,-6.274194E-2,8.776601E-2,-6.388174E-2,-6.5467685E-2,-8.5774865E-3,3.679507E-2,-5.5056263E-2,-6.255421E-2,-6.146885E-2,-2.758581E-2,-6.262873E-2,-5.811094E-2,6.955387E-2,6.2280495E-2,7.454564E-2],"split_indices":[8,12,9,1,0,0,4,9,0,7,9,5,0,0,9,14,4,16,4,1,0,3,0,9,7,8,7,1,0,3,0,0,5,0,0,0,0,0,0,0,0,0,0,0,0,0,0,0,0,0,0],"split_type":[0,0,0,0,0,0,0,0,0,0,0,0,0,0,0,0,0,0,0,0,0,0,0,0,0,0,0,0,0,0,0,0,0,0,0,0,0,0,0,0,0,0,0,0,0,0,0,0,0,0,0],"sum_hessian":[1.5713765E6,8.9352444E5,6.7785206E5,1.2758485E5,7.659396E5,6.6851394E5,9.338093E3,1.2117199E5,6.4128584E3,8.873468E4,5.7977925E5,7.517635E3,1.8204579E3,1.20203945E5,9.680484E2,4.3516617E4,4.5218062E4,5.782154E5,1.5638798E3,7.4475767E3,7.005799E1,2.683525E2,6.996959E2,4.2846645E4,6.699696E2,1.0456758E4,3.476131E4,5.611057E5,1.7109684E4,2.2615363E2,1.3377261E3,5.323045E1,7.394346E3,2.0455502E1,2.47897E2,1.3435343E3,4.1503113E4,3.0706662E2,3.6290295E2,2.6134805E3,7.8432773E3,4.8798477E2,3.427332E4,4.830253E5,7.808039E4,1.4708523E3,1.563883E4,1.2101282E1,2.1405234E2,7.16113E3,2.3321635E2],"tree_param":{"num_deleted":"0","num_feature":"18","num_nodes":"51","size_leaf_vector":"1"}},{"base_weights":[-1.2124162E-3,9.002876E-1,-1.1822525E0,-1.1287183E0,6.1821576E-2,-1.2083887E0,7.1012604E-1,-1.2308564E0,6.178716E-2,-9.817605E-1,-1.2173269E0,-6.1979122E-2,1.1932118E0,-6.1814863E-2,-5.6500226E-1,-1.1370984E0,-3.153723E-2,-1.1692554E0,-1.2253077E0,-6.3880734E-2,6.1872642E-2,1.184408E0,-6.1871137E-2,-1.2105072E0,-5.311085E-1,1.8121537E0,-8.896549E-1,-1.1790463E0,-3.1562015E-1,-1.226296E0,-8.6103857E-1,6.843513E-2,-7.027584E-2,-6.263709E-2,-2.2699146E-2,9.620573E-2,-4.4200562E-2,9.923405E-2,-6.727653E-2,-6.3226245E-2,9.617645E-2,-5.9497364E-2,-2.6268287E-2,-6.47582E-2,8.1333674E-2,-6.064227E-2,-6.17413E-2,-6.180913E-2,6.1080314E-2],"categories":[],"categories_nodes":[],"categories_segments":[],"categories_sizes":[],"default_left":[0,0,0,0,0,0,0,0,0,0,0,0,0,0,0,0,0,0,0,0,0,0,0,0,0,0,0,0,0,0,0,0,0,0,0,0,0,0,0,0,0,0,0,0,0,0,0,0,0],"id":19,"left_children":[1,3,5,7,-1,9,11,13,-1,15,17,-1,19,-1,21,23,25,27,29,-1,-1,31,-1,33,35,37,39,41,43,45,47,-1,-1,-1,-1,-1,-1,-1,-1,-1,-1,-1,-1,-1,-1,-1,-1,-1,-1],"loss_changes":[1.6068002E6,5.837305E5,3.2312188E4,2.9377438E4,0E0,1.3039375E3,8.384539E3,4.2154688E2,0E0,3.609666E3,2.36125E2,0E0,7.813613E2,0E0,1.1155195E3,9.342344E2,5.439698E3,7.3740625E2,1.90125E2,0E0,0E0,1.2765143E2,0E0,5.982656E2,1.971118E3,5.9764746E2,2.4767207E3,6.211953E2,1.9096854E3,5.9125E1,1.1281251E3,0E0,0E0,0E0,0E0,0E0,0E0,0E0,0E0,0E0,0E0,0E0,0E0,0E0,0E0,0E0,0E0,0E0,0E0],"parents":[2147483647,0,0,1,1,2,2,3,3,5,5,6,6,7,7,9,9,10,10,12,12,14,14,15,15,16,16,17,17,18,18,21,21,23,23,24,24,25,25,26,26,27,27,28,28,29,29,30,30],"right_children":[2,4,6,8,-1,10,12,14,-1,16,18,-1,20,-1,22,24,26,28,30,-1,-1,32,-1,34,36,38,40,42,44,46,48,-1,-1,-1,-1,-1,-1,-1,-1,-1,-1,-1,-1,-1,-1,-1,-1,-1,-1],"split_conditions":[2.4414062E-4,1E0,1.3927576E6,2.83332E6,6.1821576E-2,1.4E1,1E0,2.3723619E5,6.178716E-2,1.426771E0,2E0,-6.1979122E-2,1.5729242E6,-6.1814863E-2,2.4306536E5,1E0,5E1,1.3414498E6,1.068286E6,-6.3880734E-2,6.1872642E-2,1.8E1,-6.1871137E-2,4.47647E5,-2.645573E5,8.68726E3,1.4272336E6,4.7E1,5.1686006E0,2.32E2,1E0,6.843513E-2,-7.027584E-2,-6.263709E-2,-2.2699146E-2,9.620573E-2,-4.4200562E-2,9.923405E-2,-6.727653E-2,-6.3226245E-2,9.617645E-2,-5.9497364E-2,-2.6268287E-2,-6.47582E-2,8.1333674E-2,-6.064227E-2,-6.17413E-2,-6.180913E-2,6.1080314E-2],"split_indices":[8,12,9,1,0,0,13,9,0,11,17,0,2,0,9,14,2,8,9,0,0,0,0,1,7,9,2,0,11,0,13,0,0,0,0,0,0,0,0,0,0,0,0,0,0,0,0,0,0],"split_type":[0,0,0,0,0,0,0,0,0,0,0,0,0,0,0,0,0,0,0,0,0,0,0,0,0,0,0,0,0,0,0,0,0,0,0,0,0,0,0,0,0,0,0,0,0,0,0,0,0],"sum_hessian":[1.5091448E6,8.5585894E5,6.5328575E5,1.21637484E5,7.3422144E5,6.443864E5,8.899387E3,1.1660116E5,5.036324E3,2.4454826E4,6.1993156E5,1.7668203E3,7.132566E3,1.1565511E5,9.46047E2,2.101852E4,3.4363083E3,8.8289484E4,5.3164206E5,1.2493472E2,7.0076313E3,2.6241693E2,6.8363007E2,1.874644E4,2.2720796E3,1.091011E3,2.3452974E3,8.728783E4,1.00165454E3,5.3020106E5,1.4409883E3,2.4546051E2,1.6956415E1,1.775447E4,9.919688E2,2.849416E2,1.987138E3,1.0348716E3,5.6139435E1,2.0700408E3,2.752566E2,8.585512E4,1.4327147E3,6.661063E2,3.355482E2,2.0581569E5,3.243854E5,1.2214285E3,2.1955983E2],"tree_param":{"num_deleted":"0","num_feature":"18","num_nodes":"49","size_leaf_vector":"1"}},{"base_weights":[1.2830483E-3,8.9164484E-1,-1.1714934E0,-1.1189028E0,6.1112233E-2,-1.1959919E0,6.836439E-1,-1.2167002E0,6.1077952E-2,-1.074369E0,-1.2146575E0,1.181305E0,-6.1217517E-2,-6.1106592E-2,-5.521941E-1,-8.708867E-1,-1.1695167E0,-1.2213948E0,-1.1843541E0,1.2301598E0,-6.287934E-2,1.1672596E0,-6.1149545E-2,-2.611393E-1,-1.0956311E0,-1.1968905E0,-2.2938614E-1,-1.2170002E0,-6.1205674E-2,-8.332301E-1,-1.1941335E0,-5.7246603E-2,1.2332696E0,6.797505E-2,-7.023846E-2,6.826288E-2,-5.3237773E-2,-5.979341E-2,-2.945162E-3,-6.1502773E-2,-5.2373737E-2,8.086906E-2,-6.2983714E-2,-6.1156113E-2,-2.5262168E-2,3.9505493E-2,-6.1301965E-2,-4.8744906E-2,-6.0147714E-2,7.423474E-2,6.11744E-2],"categories":[],"categories_nodes":[],"categories_segments":[],"categories_sizes":[],"default_left":[0,0,0,0,0,0,0,0,0,0,0,0,0,0,0,0,0,0,0,0,0,0,0,0,0,0,0,0,0,0,0,0,0,0,0,0,0,0,0,0,0,0,0,0,0,0,0,0,0,0,0],"id":20,"left_children":[1,3,5,7,-1,9,11,13,-1,15,17,19,-1,-1,21,23,25,27,29,31,-1,33,-1,35,37,39,41,43,-1,45,47,-1,49,-1,-1,-1,-1,-1,-1,-1,-1,-1,-1,-1,-1,-1,-1,-1,-1,-1,-1],"loss_changes":[1.5207679E6,5.502833E5,2.8566E4,2.6760672E4,0E0,1.40675E3,7.7804834E3,4.0420312E2,0E0,1.5969219E3,1.080625E2,7.7581934E2,0E0,0E0,1.0531213E3,3.6042422E3,1.4469609E3,3.5E0,3.348125E2,4.8479492E1,0E0,1.2866248E2,0E0,9.262382E3,1.9970762E3,2.6929688E2,3.0322463E3,7.326875E2,0E0,1.6940924E3,1.826875E2,0E0,1.35625E1,0E0,0E0,0E0,0E0,0E0,0E0,0E0,0E0,0E0,0E0,0E0,0E0,0E0,0E0,0E0,0E0,0E0,0E0],"parents":[2147483647,0,0,1,1,2,2,3,3,5,5,6,6,7,7,9,9,10,10,11,11,14,14,15,15,16,16,17,17,18,18,19,19,21,21,23,23,24,24,25,25,26,26,27,27,29,29,30,30,32,32],"right_children":[2,4,6,8,-1,10,12,14,-1,16,18,20,-1,-1,22,24,26,28,30,32,-1,34,-1,36,38,40,42,44,-1,46,48,-1,50,-1,-1,-1,-1,-1,-1,-1,-1,-1,-1,-1,-1,-1,-1,-1,-1,-1,-1],"split_conditions":[2.4414062E-4,1E0,1.3927576E6,2.83332E6,6.1112233E-2,3.9E1,2.12993E3,2.3723619E5,6.1077952E-2,2.5E-1,2.8848206E5,1.026348E0,-6.1217517E-2,-6.1106592E-2,2.4306536E5,4.2254E4,9.055412E5,4.108473E4,2.927778E5,3.7768175E5,-6.287934E-2,1.2731753E-1,-6.1149545E-2,5.7221134E-4,2E1,3.9120494E5,9.7503575E5,3.669151E4,-6.1205674E-2,6.142399E-4,4.4E1,-5.7246603E-2,8E0,6.797505E-2,-7.023846E-2,6.826288E-2,-5.3237773E-2,-5.979341E-2,-2.945162E-3,-6.1502773E-2,-5.2373737E-2,8.086906E-2,-6.2983714E-2,-6.1156113E-2,-2.5262168E-2,3.9505493E-2,-6.1301965E-2,-4.8744906E-2,-6.0147714E-2,7.423474E-2,6.11744E-2],"split_indices":[8,12,9,1,0,0,4,9,0,9,1,10,0,0,9,4,1,5,1,1,0,10,0,10,16,9,5,5,0,11,0,0,0,0,0,0,0,0,0,0,0,0,0,0,0,0,0,0,0,0,0],"split_type":[0,0,0,0,0,0,0,0,0,0,0,0,0,0,0,0,0,0,0,0,0,0,0,0,0,0,0,0,0,0,0,0,0,0,0,0,0,0,0,0,0,0,0,0,0,0,0,0,0,0,0],"sum_hessian":[1.4563998E6,8.2788044E5,6.285193E5,1.1690689E5,7.109735E5,6.203278E5,8.191478E3,1.12218305E5,4.6885806E3,8.254407E4,5.3778375E5,6.4972397E3,1.6942384E3,1.1130749E5,9.108125E2,2.6303262E4,5.6240812E4,4.3993234E5,9.7851414E4,6.370172E3,1.2706773E2,2.553597E2,6.554528E2,7.0846675E3,1.9218596E4,5.464921E4,1.5916005E3,1.6832831E5,2.7160403E5,2.6541335E3,9.519728E4,7.8076634E0,6.3623643E3,2.380755E2,1.7284195E1,2.3426587E3,4.742009E3,1.752402E4,1.6945764E3,4.4715957E4,9.933255E3,5.6972144E2,1.0218791E3,1.6689195E5,1.4363491E3,5.1686194E2,2.1372717E3,3.686789E3,9.151049E4,2.3222746E2,6.1301367E3],"tree_param":{"num_deleted":"0","num_feature":"18","num_nodes":"51","size_leaf_vector":"1"}},{"base_weights":[1.5891562E-3,8.8091445E-1,-1.1497655E0,-1.1130292E0,6.0454495E-2,-1.1768347E0,7.2527176E-1,-1.2035521E0,1.179467E0,-1.029008E0,-1.199713E0,1.1732692E0,-6.0547072E-2,-6.0448468E-2,-5.0212187E-1,6.04069E-2,-5.9323866E-2,-7.641909E-1,-1.1663164E0,-1.2007214E0,-8.301197E-1,1.21591E0,-6.1986364E-2,1.1332604E0,-6.047027E-2,-3.314522E-1,-1.0036402E0,-1.1814475E0,4.9206015E-1,-1.1845284E0,-6.0498208E-2,-6.046045E-2,1.2360014E0,1.2081089E0,7.188561E-2,6.575479E-2,-6.823569E-2,3.9238716E-3,-4.87271E-2,-5.8534354E-2,-1.4030995E-2,-5.9860487E-2,-3.7262514E-2,-6.2040456E-2,7.5162075E-2,-5.727495E-2,-6.0584456E-2,6.807115E-2,-5.662572E-2,6.0538854E-2,-6.1073173E-2],"categories":[],"categories_nodes":[],"categories_segments":[],"categories_sizes":[],"default_left":[0,0,0,0,0,0,0,0,0,0,0,0,0,0,0,0,0,0,0,0,0,0,0,0,0,0,0,0,0,0,0,0,0,0,0,0,0,0,0,0,0,0,0,0,0,0,0,0,0,0,0],"id":21,"left_children":[1,3,5,7,-1,9,11,13,15,17,19,21,-1,-1,23,-1,-1,25,27,29,31,33,-1,35,-1,37,39,41,43,45,-1,-1,47,49,-1,-1,-1,-1,-1,-1,-1,-1,-1,-1,-1,-1,-1,-1,-1,-1,-1],"loss_changes":[1.4163932E6,5.190545E5,3.0749E4,2.326536E4,0E0,2.0181875E3,7.480203E3,4.0901562E2,2.9033105E2,2.9094219E3,1.91625E2,7.219951E2,0E0,0E0,9.5954895E2,0E0,0E0,2.8319053E3,1.3233125E3,7.55E1,1.1064382E3,9.904297E0,0E0,1.15605316E2,0E0,2.5675322E3,2.1248223E3,3.5803906E2,8.381094E2,1.9709375E2,0E0,0E0,6.6670105E1,4.4615234E1,0E0,0E0,0E0,0E0,0E0,0E0,0E0,0E0,0E0,0E0,0E0,0E0,0E0,0E0,0E0,0E0,0E0],"parents":[2147483647,0,0,1,1,2,2,3,3,5,5,6,6,7,7,8,8,9,9,10,10,11,11,14,14,17,17,18,18,19,19,20,20,21,21,23,23,25,25,26,26,27,27,28,28,29,29,32,32,33,33],"right_children":[2,4,6,8,-1,10,12,14,16,18,20,22,-1,-1,24,-1,-1,26,28,30,32,34,-1,36,-1,38,40,42,44,46,-1,-1,48,50,-1,-1,-1,-1,-1,-1,-1,-1,-1,-1,-1,-1,-1,-1,-1,-1,-1],"split_conditions":[2.4414062E-4,1E0,1.3927576E6,1.3927576E6,6.0454495E-2,3.9E1,2.12993E3,2.3723619E5,2.2583594E2,1E0,1.068286E6,1.026348E0,-6.0547072E-2,-6.0448468E-2,2.4306536E5,6.04069E-2,-5.9323866E-2,6.0110524E-2,3.18508E5,7.8125E-3,1E0,4.2349777E1,-6.1986364E-2,1.2731753E-1,-6.047027E-2,4.546E3,1.426771E0,7.2771E4,4.5105934E0,2.32E2,-6.0498208E-2,-6.046045E-2,2.2583594E2,2.2583594E2,7.188561E-2,6.575479E-2,-6.823569E-2,3.9238716E-3,-4.87271E-2,-5.8534354E-2,-1.4030995E-2,-5.9860487E-2,-3.7262514E-2,-6.2040456E-2,7.5162075E-2,-5.727495E-2,-6.0584456E-2,6.807115E-2,-5.662572E-2,6.0538854E-2,-6.1073173E-2],"split_indices":[8,12,9,9,0,0,4,9,7,9,9,10,0,0,9,0,0,11,6,9,13,11,0,10,0,6,11,6,11,0,0,0,7,7,0,0,0,0,0,0,0,0,0,0,0,0,0,0,0,0,0],"split_type":[0,0,0,0,0,0,0,0,0,0,0,0,0,0,0,0,0,0,0,0,0,0,0,0,0,0,0,0,0,0,0,0,0,0,0,0,0,0,0,0,0,0,0,0,0,0,0,0,0,0,0],"sum_hessian":[1.3990219E6,7.932174E5,6.0580444E5,1.1210174E5,6.811157E5,5.9718356E5,8.620891E3,1.07843875E5,4.2578677E3,8.004239E4,5.1714116E5,7.0013716E3,1.6195186E3,1.0701649E5,8.273809E2,4.207413E3,5.0454628E1,2.7333492E4,5.2708902E4,5.157314E5,1.4097301E3,6.8803247E3,1.2104695E2,2.4957335E2,5.7780756E2,9.737833E3,1.759566E4,5.2232676E4,4.7622662E2,1.8745527E5,3.2827616E5,1.1915662E3,2.1816388E2,6.6532183E3,2.2710677E2,2.3311755E2,1.6455803E1,5.947436E3,3.790397E3,1.4292707E4,3.3029524E3,5.0409145E4,1.8235289E3,1.7536916E2,3.0085745E2,7.69404E4,1.1051486E5,2.0763622E2,1.0527671E1,6.6464614E3,6.7564416E0],"tree_param":{"num_deleted":"0","num_feature":"18","num_nodes":"51","size_leaf_vector":"1"}},{"base_weights":[6.923515E-3,8.7332773E-1,-1.1299951E0,-1.0774333E0,5.9840318E-2,-1.1568439E0,7.1615994E-1,-1.1913095E0,5.971336E-2,-9.889027E-1,-1.1831181E0,1.1579105E0,-5.9956398E-2,-5.9835177E-2,-5.4267234E-1,-7.3283494E-1,-1.1218573E0,-1.1858057E0,-1.0207741E0,-6.141931E-2,5.993067E-2,1.0946156E0,-5.986614E-2,-5.176542E-1,-1.1206905E0,-1.166052E0,-5.435004E-1,-1.1701058E0,-1.194505E0,1.2848662E0,-1.1348422E0,-6.809424E-2,6.451901E-2,-3.0816024E-2,1.4534281E-1,-6.1507355E-2,1.18431464E-1,-5.910479E-2,-2.6824152E-2,5.6315076E-2,-4.7868624E-2,-5.646233E-2,-5.9959274E-2,-5.987531E-2,-5.5316683E-2,-6.414159E-2,1.2773427E-1,-6.0053676E-2,4.8981663E-2],"categories":[],"categories_nodes":[],"categories_segments":[],"categories_sizes":[],"default_left":[0,0,0,0,0,0,0,0,0,0,0,0,0,0,0,0,0,0,0,0,0,0,0,0,0,0,0,0,0,0,0,0,0,0,0,0,0,0,0,0,0,0,0,0,0,0,0,0,0],"id":22,"left_children":[1,3,5,7,-1,9,11,13,-1,15,17,19,-1,-1,21,23,25,27,29,-1,-1,31,-1,33,35,37,39,41,43,45,47,-1,-1,-1,-1,-1,-1,-1,-1,-1,-1,-1,-1,-1,-1,-1,-1,-1,-1],"loss_changes":[1.3295945E6,4.8339106E5,2.8936312E4,2.8188023E4,0E0,2.537625E3,7.0818765E3,3.6220312E2,0E0,2.6493906E3,2.1575E2,6.6201953E2,0E0,0E0,9.2067664E2,2.2200361E3,1.308918E3,6.51875E1,2.1345195E3,0E0,0E0,1.1979712E2,0E0,5.7848867E3,3.6288037E3,4.800078E2,2.51632E3,2.058125E2,8.171875E1,1.2514287E3,1.0835732E3,0E0,0E0,0E0,0E0,0E0,0E0,0E0,0E0,0E0,0E0,0E0,0E0,0E0,0E0,0E0,0E0,0E0,0E0],"parents":[2147483647,0,0,1,1,2,2,3,3,5,5,6,6,7,7,9,9,10,10,11,11,14,14,15,15,16,16,17,17,18,18,21,21,23,23,24,24,25,25,26,26,27,27,28,28,29,29,30,30],"right_children":[2,4,6,8,-1,10,12,14,-1,16,18,20,-1,-1,22,24,26,28,30,-1,-1,32,-1,34,36,38,40,42,44,46,48,-1,-1,-1,-1,-1,-1,-1,-1,-1,-1,-1,-1,-1,-1,-1,-1,-1,-1],"split_conditions":[2.4414062E-4,1E0,1.3927576E6,1.1328647E7,5.9840318E-2,3.9E1,6.142399E-4,2.3723619E5,5.971336E-2,1E0,1.3414498E6,4.8434215E6,-5.9956398E-2,-5.9835177E-2,2.4306536E5,4.577E3,1E0,7.8125E-3,4.4E1,-6.141931E-2,5.993067E-2,2.735034E5,-5.986614E-2,4.28648E3,5E-1,1.3207516E1,4.439529E4,2.32E2,1E0,5.1686006E0,1.2871638E6,-6.809424E-2,6.451901E-2,-3.0816024E-2,1.4534281E-1,-6.1507355E-2,1.18431464E-1,-5.910479E-2,-2.6824152E-2,5.6315076E-2,-4.7868624E-2,-5.646233E-2,-5.9959274E-2,-5.987531E-2,-5.5316683E-2,-6.414159E-2,1.2773427E-1,-6.0053676E-2,4.8981663E-2],"split_indices":[8,12,9,2,0,0,11,9,0,9,8,2,0,0,9,2,14,9,0,0,0,7,0,6,9,11,8,0,14,11,2,0,0,0,0,0,0,0,0,0,0,0,0,0,0,0,0,0,0],"split_type":[0,0,0,0,0,0,0,0,0,0,0,0,0,0,0,0,0,0,0,0,0,0,0,0,0,0,0,0,0,0,0,0,0,0,0,0,0,0,0,0,0,0,0,0,0,0,0,0,0],"sum_hessian":[1.3497974E6,7.6603244E5,5.83765E5,1.0895697E5,6.5707544E5,5.7539744E5,8.367591E3,1.03756375E5,5.2005933E3,7.784785E4,4.9754956E5,6.799721E3,1.56787E3,1.0289965E5,8.567268E2,2.660823E4,5.123962E4,4.8944003E5,8.1095615E3,1.13506996E2,6.6862144E3,2.4447284E2,6.1225397E2,1.7115314E4,9.492917E3,4.760104E4,3.6385823E3,1.7455827E5,3.1488175E5,3.817694E2,7.7277925E3,1.7567263E1,2.2690558E2,1.6636826E4,4.7848767E2,9.204846E3,2.880711E2,4.641712E4,1.1839171E3,7.223275E2,2.916255E3,7.259704E4,1.01961234E5,3.0450353E5,1.0378224E4,1.2629653E2,2.5547287E2,7.4935522E3,2.3423996E2],"tree_param":{"num_deleted":"0","num_feature":"18","num_nodes":"49","size_leaf_vector":"1"}},{"base_weights":[4.915673E-3,8.64401E-1,-1.1191236E0,-1.0851039E0,5.926934E-2,-1.1443077E0,6.9421977E-1,-1.179888E0,5.9113782E-2,-9.622601E-1,-1.1731141E0,1.1748154E0,-8.6214155E-1,-5.9263896E-2,-5.259426E-1,-6.8907404E-1,-1.107617E0,-1.1741105E0,-8.082138E-1,5.9299946E-2,-5.734641E-2,1.2102457E0,-5.948328E-2,1.0801997E0,-5.9273966E-2,-4.6605545E-1,-1.1047477E0,-1.1528208E0,-5.257893E-1,-1.1835858E0,-1.1570967E0,-5.929798E-2,1.1877562E0,-5.7374626E-2,7.220412E-2,-6.86255E-2,6.3498095E-2,-2.7995214E-2,1.3141519E-1,-6.081849E-2,1.0420914E-1,-5.847324E-2,-2.6017342E-2,5.3069968E-2,-4.6738077E-2,-5.8926698E-2,-5.9376925E-2,-3.3722218E-2,-5.8146644E-2,-5.5711027E-2,6.6136025E-2],"categories":[],"categories_nodes":[],"categories_segments":[],"categories_sizes":[],"default_left":[0,0,0,0,0,0,0,0,0,0,0,0,0,0,0,0,0,0,0,0,0,0,0,0,0,0,0,0,0,0,0,0,0,0,0,0,0,0,0,0,0,0,0,0,0,0,0,0,0,0,0],"id":23,"left_children":[1,3,5,7,-1,9,11,13,-1,15,17,19,21,-1,23,25,27,29,31,-1,-1,33,-1,35,-1,37,39,41,43,45,47,-1,49,-1,-1,-1,-1,-1,-1,-1,-1,-1,-1,-1,-1,-1,-1,-1,-1,-1,-1],"loss_changes":[1.2510672E6,4.5921488E5,2.5626062E4,2.2297688E4,0E0,2.9010625E3,5.7506865E3,3.5023438E2,0E0,3.0017188E3,1.72625E2,1.5387598E2,1.2328088E3,0E0,8.6572644E2,2.4340557E3,1.2972578E3,7.53125E1,9.8520825E2,0E0,0E0,1.3843658E2,0E0,1.1251776E2,0E0,4.9656416E3,3.2665146E3,4.8129688E2,2.3117988E3,4.5E0,4.793125E2,0E0,6.614929E1,0E0,0E0,0E0,0E0,0E0,0E0,0E0,0E0,0E0,0E0,0E0,0E0,0E0,0E0,0E0,0E0,0E0,0E0],"parents":[2147483647,0,0,1,1,2,2,3,3,5,5,6,6,7,7,9,9,10,10,11,11,12,12,14,14,15,15,16,16,17,17,18,18,21,21,23,23,25,25,26,26,27,27,28,28,29,29,30,30,32,32],"right_children":[2,4,6,8,-1,10,12,14,-1,16,18,20,22,-1,24,26,28,30,32,-1,-1,34,-1,36,-1,38,40,42,44,46,48,-1,50,-1,-1,-1,-1,-1,-1,-1,-1,-1,-1,-1,-1,-1,-1,-1,-1,-1,-1],"split_conditions":[2.4414062E-4,1E0,1.3927576E6,1.1328647E7,5.926934E-2,3.9E1,4.77637E3,2.3723619E5,5.9113782E-2,1E0,1.068286E6,6.142399E-4,1E0,-5.9263896E-2,2.4306536E5,4.577E3,1E0,2.014366E5,1E0,5.9299946E-2,-5.734641E-2,1.0720236E2,-5.948328E-2,1.0507085E-1,-5.9273966E-2,4.28648E3,5E-1,1.3207516E1,4.439529E4,4.108473E4,2.04146E5,-5.929798E-2,8.448E5,-5.7374626E-2,7.220412E-2,-6.86255E-2,6.3498095E-2,-2.7995214E-2,1.3141519E-1,-6.081849E-2,1.0420914E-1,-5.847324E-2,-2.6017342E-2,5.3069968E-2,-4.6738077E-2,-5.8926698E-2,-5.9376925E-2,-3.3722218E-2,-5.8146644E-2,-5.5711027E-2,6.6136025E-2],"split_indices":[8,12,9,2,0,0,5,9,0,9,9,11,16,0,9,2,14,8,13,0,0,11,0,11,0,6,9,11,8,5,8,0,2,0,0,0,0,0,0,0,0,0,0,0,0,0,0,0,0,0,0],"split_type":[0,0,0,0,0,0,0,0,0,0,0,0,0,0,0,0,0,0,0,0,0,0,0,0,0,0,0,0,0,0,0,0,0,0,0,0,0,0,0,0,0,0,0,0,0,0,0,0,0,0,0],"sum_hessian":[1.294971E6,7.338445E5,5.611265E5,1.0374532E5,6.300992E5,5.534406E5,7.6858877E3,9.958294E4,4.16238E3,7.561491E4,4.7782572E5,5.8727305E3,1.813157E3,9.876791E4,8.150365E2,2.6262736E4,4.9352168E4,4.7652188E5,1.3038278E3,5.845108E3,2.7622692E1,2.470382E2,1.5661188E3,2.3702641E2,5.780101E2,1.709385E4,9.168887E3,4.579322E4,3.5589478E3,3.0602062E5,1.7050125E5,1.096724E3,2.0710373E2,2.1899017E1,2.2513918E2,1.653599E1,2.2049042E2,1.6591498E4,5.0235208E2,8.859431E3,3.0945663E2,4.461805E4,1.1751696E3,7.2877814E2,2.8301697E3,1.34476E5,1.7154464E5,2.0386256E3,1.6846262E5,1.10270815E1,1.9607664E2],"tree_param":{"num_deleted":"0","num_feature":"18","num_nodes":"51","size_leaf_vector":"1"}},{"base_weights":[4.70733E-3,8.570805E-1,-1.1091874E0,-1.0782171E0,5.8736183E-2,-1.1336758E0,6.703165E-1,-1.1692334E0,5.8701623E-2,-9.5098627E-1,-1.1543027E0,1.165121E0,-5.8952402E-2,-5.873102E-2,-5.270012E-1,-1.1814582E0,-7.434546E-1,-1.1702898E0,-1.1184732E0,-5.6984227E-2,5.8791023E-2,1.0540888E0,-5.8737945E-2,-1.2587328E0,-5.893258E-2,-4.8252717E-1,-1.1329637E0,-1.1570233E0,-5.8777846E-2,-8.9419144E-1,-1.1425036E0,-6.0753204E-2,6.2225908E-2,-6.765861E-2,-6.1339356E-2,5.13733E-2,-3.5593323E-2,-5.997584E-2,5.8519123E-3,-4.2372555E-2,-5.8361214E-2,9.175925E-2,-4.8102435E-2,-4.9460277E-2,-5.8383692E-2],"categories":[],"categories_nodes":[],"categories_segments":[],"categories_sizes":[],"default_left":[0,0,0,0,0,0,0,0,0,0,0,0,0,0,0,0,0,0,0,0,0,0,0,0,0,0,0,0,0,0,0,0,0,0,0,0,0,0,0,0,0,0,0,0,0],"id":24,"left_children":[1,3,5,7,-1,9,11,13,-1,15,17,19,-1,-1,21,23,25,27,29,-1,-1,31,-1,33,-1,35,37,39,-1,41,43,-1,-1,-1,-1,-1,-1,-1,-1,-1,-1,-1,-1,-1,-1],"loss_changes":[1.1808222E6,4.3311247E5,2.3494812E4,2.036429E4,0E0,2.0028125E3,6.6989014E3,3.2953125E2,0E0,2.5798672E3,2.721875E2,1.4375098E2,0E0,0E0,8.1664624E2,3.8125E0,2.8852969E3,2.153125E1,7.935156E2,0E0,0E0,1.01707184E2,0E0,7.369385E-1,0E0,5.8901445E3,9.478369E2,2.955547E2,0E0,2.645582E3,5.1253125E2,0E0,0E0,0E0,0E0,0E0,0E0,0E0,0E0,0E0,0E0,0E0,0E0,0E0,0E0],"parents":[2147483647,0,0,1,1,2,2,3,3,5,5,6,6,7,7,9,9,10,10,11,11,14,14,15,15,16,16,17,17,18,18,21,21,23,23,25,25,26,26,27,27,29,29,30,30],"right_children":[2,4,6,8,-1,10,12,14,-1,16,18,20,-1,-1,22,24,26,28,30,-1,-1,32,-1,34,-1,36,38,40,-1,42,44,-1,-1,-1,-1,-1,-1,-1,-1,-1,-1,-1,-1,-1,-1],"split_conditions":[2.4414062E-4,1E0,1.3927576E6,2.83332E6,5.8736183E-2,2.4E1,4.77637E3,2.3723619E5,5.8701623E-2,2.147668E4,2.0116119E5,2.83332E6,-5.8952402E-2,-5.873102E-2,2.4306536E5,1E0,4.577E3,7.8125E-3,2E0,-5.6984227E-2,5.8791023E-2,2.8274294E5,-5.8737945E-2,5.896939E4,-5.893258E-2,6.142399E-4,3.18508E5,4.108473E4,-5.8777846E-2,2.0376756E5,6.142399E-4,-6.0753204E-2,6.2225908E-2,-6.765861E-2,-6.1339356E-2,5.13733E-2,-3.5593323E-2,-5.997584E-2,5.8519123E-3,-4.2372555E-2,-5.8361214E-2,9.175925E-2,-4.8102435E-2,-4.9460277E-2,-5.8383692E-2],"split_indices":[8,12,9,1,0,0,5,9,0,7,1,1,0,0,9,9,2,9,17,0,0,3,0,5,0,11,6,5,0,1,11,0,0,0,0,0,0,0,0,0,0,0,0,0,0],"split_type":[0,0,0,0,0,0,0,0,0,0,0,0,0,0,0,0,0,0,0,0,0,0,0,0,0,0,0,0,0,0,0,0,0,0,0,0,0,0,0,0,0,0,0,0,0],"sum_hessian":[1.2436838E6,7.045495E5,5.3913425E5,9.933437E4,6.052151E5,5.318161E5,7.3181143E3,9.547656E4,3.8578052E3,5.3959344E4,4.7785678E5,5.77375E3,1.5443641E3,9.468141E4,7.9515814E2,2.5564168E4,2.8395176E4,3.303993E5,1.4745748E5,2.6148617E1,5.747601E3,2.3086526E2,5.6429285E2,8.790272E2,2.468514E4,1.7005736E4,1.1389439E4,9.396519E4,2.3643411E5,1.4274329E4,1.3318316E5,1.741714E1,2.1344812E2,2.1094196E2,6.6808527E2,2.241771E3,1.4763966E4,1.0813807E4,5.756327E2,3.0005461E3,9.096464E4,3.4560898E2,1.392872E4,1.8789666E4,1.14393484E5],"tree_param":{"num_deleted":"0","num_feature":"18","num_nodes":"45","size_leaf_vector":"1"}},{"base_weights":[3.3145738E-4,8.4783775E-1,-1.0998234E0,-1.0571867E0,5.8237165E-2,-1.1235043E0,6.6709036E-1,-1.1593001E0,5.8206398E-2,-9.625032E-1,-1.1491683E0,1.1281103E0,-5.829069E-2,-5.8232993E-2,-5.2401495E-1,-1.1285158E0,-7.563575E-1,-1.1521312E0,-9.712393E-1,1.174193E0,-5.9387237E-2,1.0031959E0,-5.8232345E-2,-1.1504462E0,2.0579672E-1,-1.2742363E-1,-9.750773E-1,-1.1343362E0,-1.1620294E0,1.3797164E0,-1.098004E0,-5.3090215E-2,1.1770585E0,-6.719581E-2,5.994015E-2,-5.8813598E-2,-3.8231175E-2,9.361571E-2,-5.9475996E-2,8.483313E-2,-6.0335066E-2,6.307759E-2,-5.0759982E-2,-5.4428168E-2,-5.8351576E-2,-5.8275282E-2,-5.0337106E-2,1.20521046E-1,-6.1801303E-2,-5.843344E-2,4.7013287E-2,7.19069E-2,5.8268316E-2],"categories":[],"categories_nodes":[],"categories_segments":[],"categories_sizes":[],"default_left":[0,0,0,0,0,0,0,0,0,0,0,0,0,0,0,0,0,0,0,0,0,0,0,0,0,0,0,0,0,0,0,0,0,0,0,0,0,0,0,0,0,0,0,0,0,0,0,0,0,0,0,0,0],"id":25,"left_children":[1,3,5,7,-1,9,11,13,-1,15,17,19,-1,-1,21,23,25,27,29,31,-1,33,-1,35,37,39,41,43,45,47,49,-1,51,-1,-1,-1,-1,-1,-1,-1,-1,-1,-1,-1,-1,-1,-1,-1,-1,-1,-1,-1,-1],"loss_changes":[1.1089459E6,4.0558875E5,2.165575E4,2.173579E4,0E0,2.1088125E3,5.7854775E3,3.1114844E2,0E0,2.4021016E3,2.309375E2,5.851548E2,0E0,0E0,7.529672E2,1.1384453E3,4.3091562E3,7.475E1,2.1537031E3,3.562793E1,0E0,1.06073944E2,0E0,3.801875E2,1.466523E3,1.5918194E4,2.0871172E3,2.303125E2,1.4884375E2,1.0003179E3,9.88166E2,0E0,1.441748E1,0E0,0E0,0E0,0E0,0E0,0E0,0E0,0E0,0E0,0E0,0E0,0E0,0E0,0E0,0E0,0E0,0E0,0E0,0E0,0E0],"parents":[2147483647,0,0,1,1,2,2,3,3,5,5,6,6,7,7,9,9,10,10,11,11,14,14,15,15,16,16,17,17,18,18,19,19,21,21,23,23,24,24,25,25,26,26,27,27,28,28,29,29,30,30,32,32],"right_children":[2,4,6,8,-1,10,12,14,-1,16,18,20,-1,-1,22,24,26,28,30,32,-1,34,-1,36,38,40,42,44,46,48,50,-1,52,-1,-1,-1,-1,-1,-1,-1,-1,-1,-1,-1,-1,-1,-1,-1,-1,-1,-1,-1,-1],"split_conditions":[2.4414062E-4,1E0,1.3927576E6,2.83332E6,5.8237165E-2,3.9E1,2.12993E3,2.3723619E5,5.8206398E-2,8.8583125E4,1.3414498E6,1.026348E0,-5.829069E-2,-5.8232993E-2,2.4306536E5,7.2771E4,4.654433E4,7.8125E-3,4.4E1,3.7768175E5,-5.9387237E-2,2.735034E5,-5.8232345E-2,2E1,-2.645573E5,5.7221134E-4,9.1645125E4,2.32E2,5.1500412E5,2.6175648E5,1.334056E6,-5.3090215E-2,4.238727E5,-6.719581E-2,5.994015E-2,-5.8813598E-2,-3.8231175E-2,9.361571E-2,-5.9475996E-2,8.483313E-2,-6.0335066E-2,6.307759E-2,-5.0759982E-2,-5.4428168E-2,-5.8351576E-2,-5.8275282E-2,-5.0337106E-2,1.20521046E-1,-6.1801303E-2,-5.843344E-2,4.7013287E-2,7.19069E-2,5.8268316E-2],"split_indices":[8,12,9,1,0,0,4,9,0,7,8,10,0,0,9,6,4,9,0,1,0,7,0,16,7,10,7,0,1,4,3,0,1,0,0,0,0,0,0,0,0,0,0,0,0,0,0,0,0,0,0,0,0],"split_type":[0,0,0,0,0,0,0,0,0,0,0,0,0,0,0,0,0,0,0,0,0,0,0,0,0,0,0,0,0,0,0,0,0,0,0,0,0,0,0,0,0,0,0,0,0,0,0,0,0,0,0,0,0],"sum_hessian":[1.1893589E6,6.718208E5,5.1753806E5,9.581891E4,5.760019E5,5.1069394E5,6.844125E3,9.160822E4,4.210688E3,7.021948E4,4.4047447E5,5.4689824E3,1.3751428E3,9.084082E4,7.673953E2,3.889317E4,3.1326303E4,4.332537E5,7.2207617E3,5.362805E3,1.0617717E2,2.2656412E2,5.408312E2,3.8264484E4,6.286888E2,8.0836406E3,2.3242662E4,1.548983E5,2.783554E5,3.688812E2,6.8518804E3,6.3460493E0,5.356459E3,1.6938263E1,2.0962585E2,3.5861703E4,2.40278E3,2.8637833E2,3.4231046E2,3.0047131E3,5.0789272E3,4.0901724E2,2.2833645E4,6.4557023E4,9.034127E4,2.722534E5,6.102005E3,2.64697E2,1.0418421E2,6.6227524E3,2.2912817E2,2.2400461E2,5.1324546E3],"tree_param":{"num_deleted":"0","num_feature":"18","num_nodes":"53","size_leaf_vector":"1"}},{"base_weights":[3.016269E-4,8.413424E-1,-1.0909276E0,-1.0412965E0,5.7769418E-2,-1.1123079E0,5.700451E-1,-1.1355473E0,5.7738025E-2,-9.484117E-1,-1.1386623E0,-5.841899E-2,1.1772493E0,5.8775254E-2,-1.149974E0,-7.7201676E-1,-1.1416074E0,-1.1446537E0,-8.1867033E-1,1.1886702E0,-6.1163407E-2,-5.776873E-2,-7.5418395E-1,-8.188674E-1,2.077721E0,-8.6484814E-1,-1.1682857E0,-1.13187E0,-1.1530551E0,6.429979E-1,-5.8027674E-2,5.7641365E-2,8.9466915E-2,4.0628787E-2,-5.798603E-2,-4.5581218E-2,2.5412783E-2,-5.829985E-2,1.18423596E-1,-5.8102723E-2,9.691302E-2,-5.792105E-2,-5.8938183E-2,-5.4930992E-2,-5.7817843E-2,-5.784625E-2,-5.2781533E-2,6.755157E-2,-5.8082648E-2],"categories":[],"categories_nodes":[],"categories_segments":[],"categories_sizes":[],"default_left":[0,0,0,0,0,0,0,0,0,0,0,0,0,0,0,0,0,0,0,0,0,0,0,0,0,0,0,0,0,0,0,0,0,0,0,0,0,0,0,0,0,0,0,0,0,0,0,0,0],"id":26,"left_children":[1,3,5,7,-1,9,11,13,-1,15,17,-1,19,-1,21,23,25,27,29,31,-1,-1,33,35,37,39,41,43,45,47,-1,-1,-1,-1,-1,-1,-1,-1,-1,-1,-1,-1,-1,-1,-1,-1,-1,-1,-1],"loss_changes":[1.04766906E6,3.8115453E5,1.7645375E4,1.9077656E4,0E0,2.1176875E3,6.667404E3,2.9477812E3,0E0,2.3149297E3,8.09125E2,0E0,1.2978125E2,0E0,1.8666406E2,4.7450195E3,2.3825781E2,4.3E1,3.8840273E3,9.79541E1,0E0,0E0,7.541323E2,4.303383E3,5.4507446E2,2.3812764E3,1.4570312E0,1.325E2,9.290625E1,1.8845261E3,0E0,0E0,0E0,0E0,0E0,0E0,0E0,0E0,0E0,0E0,0E0,0E0,0E0,0E0,0E0,0E0,0E0,0E0,0E0],"parents":[2147483647,0,0,1,1,2,2,3,3,5,5,6,6,7,7,9,9,10,10,12,12,14,14,15,15,16,16,17,17,18,18,19,19,22,22,23,23,24,24,25,25,26,26,27,27,28,28,29,29],"right_children":[2,4,6,8,-1,10,12,14,-1,16,18,-1,20,-1,22,24,26,28,30,32,-1,-1,34,36,38,40,42,44,46,48,-1,-1,-1,-1,-1,-1,-1,-1,-1,-1,-1,-1,-1,-1,-1,-1,-1,-1,-1],"split_conditions":[2.4414062E-4,1E0,3.18508E5,2.83332E6,5.7769418E-2,3.9E1,1.4272336E6,5E1,5.7738025E-2,4.577E3,1.3414498E6,-5.841899E-2,6.711336E5,5.8775254E-2,2.735034E5,4.28648E3,-2.645573E5,5.7221134E-4,1.6699214E6,6.424377E5,-6.1163407E-2,-5.776873E-2,2.7950525E5,1.426771E0,8.8583125E4,1E0,2.2583594E2,2.32E2,5.1500412E5,1.026348E0,-5.8027674E-2,5.7641365E-2,8.9466915E-2,4.0628787E-2,-5.798603E-2,-4.5581218E-2,2.5412783E-2,-5.829985E-2,1.18423596E-1,-5.8102723E-2,9.691302E-2,-5.792105E-2,-5.8938183E-2,-5.4930992E-2,-5.7817843E-2,-5.784625E-2,-5.2781533E-2,6.755157E-2,-5.8082648E-2],"split_indices":[8,10,6,1,0,0,2,2,0,2,8,0,5,0,7,6,7,10,5,5,0,0,7,11,7,14,7,0,1,10,0,0,0,0,0,0,0,0,0,0,0,0,0,0,0,0,0,0,0],"split_type":[0,0,0,0,0,0,0,0,0,0,0,0,0,0,0,0,0,0,0,0,0,0,0,0,0,0,0,0,0,0,0,0,0,0,0,0,0,0,0,0,0,0,0,0,0,0,0,0,0],"sum_hessian":[1.1415379E6,6.4467175E5,4.9686612E5,9.216423E4,5.525075E5,4.9055206E5,6.314044E3,8.837199E4,3.792236E3,6.7959414E4,4.2259266E5,1.6342109E3,4.679833E3,5.476978E2,8.78243E4,3.5527234E4,3.2432178E4,4.1482284E5,7.769814E3,4.6582173E3,2.1615892E1,8.663993E4,1.184365E3,3.4953336E4,5.738961E2,2.8547168E3,2.957746E4,1.6456552E5,2.5025733E5,1.472632E3,6.297182E3,4.3988174E3,2.5939993E2,2.4326784E2,9.410971E2,3.2670291E4,2.283046E3,4.6933647E1,5.2696246E2,2.581616E3,2.731009E2,1.5296801E4,1.4280661E4,6.9814875E4,9.475065E4,2.4068497E5,9.57235E3,1.0578887E3,4.1474326E2],"tree_param":{"num_deleted":"0","num_feature":"18","num_nodes":"49","size_leaf_vector":"1"}},{"base_weights":[-1.6441661E-3,8.346613E-1,-1.0850097E0,-1.0243733E0,5.7334226E-2,-1.1094651E0,6.688014E-1,-1.1233702E0,5.7302922E-2,-8.815418E-1,-1.1358762E0,1.1365385E0,-8.0344075E-1,5.82105E-2,-1.1411847E0,-5.5090714E-1,-1.0344514E0,-1.0375733E0,-1.1385376E0,-5.558231E-2,5.737219E-2,1.1925932E0,-5.757575E-2,-5.733154E-2,-4.912747E-1,-6.926879E-1,5.745984E-1,-1.0759195E0,1.3175495E-1,-1.1655307E0,1.3024676E-1,-5.7409525E-2,-1.116665E0,-5.497436E-2,6.983936E-2,5.0638776E-2,-5.7312567E-2,-6.5389746E-3,-5.11215E-2,-6.012808E-2,9.619983E-2,-5.4891992E-2,-2.1120416E-2,7.673579E-2,-5.910362E-2,-5.9248406E-2,-5.7589978E-2,8.14103E-2,-5.8957696E-2,-3.2301374E-2,-5.6224532E-2],"categories":[],"categories_nodes":[],"categories_segments":[],"categories_sizes":[],"default_left":[0,0,0,0,0,0,0,0,0,0,0,0,0,0,0,0,0,0,0,0,0,0,0,0,0,0,0,0,0,0,0,0,0,0,0,0,0,0,0,0,0,0,0,0,0,0,0,0,0,0,0],"id":27,"left_children":[1,3,5,7,-1,9,11,13,-1,15,17,19,21,-1,23,25,27,29,31,-1,-1,33,-1,-1,35,37,39,41,43,45,47,-1,49,-1,-1,-1,-1,-1,-1,-1,-1,-1,-1,-1,-1,-1,-1,-1,-1,-1,-1],"loss_changes":[9.907836E5,3.579834E5,2.0433875E4,1.9059078E4,0E0,2.8271875E3,4.5129844E3,3.458211E3,0E0,2.4662773E3,1.088125E2,1.2320215E2,1.0993206E3,0E0,2.9720312E2,2.4631396E3,1.6137461E3,1.6606973E3,8.5E1,0E0,0E0,1.1160272E2,0E0,0E0,6.921317E2,2.5394448E3,4.144087E3,4.609297E2,2.1150264E3,1.0742188E0,2.1558135E3,0E0,4.6154688E2,0E0,0E0,0E0,0E0,0E0,0E0,0E0,0E0,0E0,0E0,0E0,0E0,0E0,0E0,0E0,0E0,0E0,0E0],"parents":[2147483647,0,0,1,1,2,2,3,3,5,5,6,6,7,7,9,9,10,10,11,11,12,12,14,14,15,15,16,16,17,17,18,18,21,21,24,24,25,25,26,26,27,27,28,28,29,29,30,30,32,32],"right_children":[2,4,6,8,-1,10,12,14,-1,16,18,20,22,-1,24,26,28,30,32,-1,-1,34,-1,-1,36,38,40,42,44,46,48,-1,50,-1,-1,-1,-1,-1,-1,-1,-1,-1,-1,-1,-1,-1,-1,-1,-1,-1,-1],"split_conditions":[2.4414062E-4,1E0,1.3927576E6,2.83332E6,5.7334226E-2,2.4E1,4.77637E3,5E1,5.7302922E-2,1E0,3.7E1,2.83332E6,1E0,5.82105E-2,2.3723619E5,1.25E-1,9.055412E5,2.5723333E0,2.0116119E5,-5.558231E-2,5.737219E-2,1.0720236E2,-5.757575E-2,-5.733154E-2,2.4306536E5,6.0110524E-2,3.111014E5,1.3207516E1,9.7503575E5,1E0,5.7221134E-4,-5.7409525E-2,2.0376756E5,-5.497436E-2,6.983936E-2,5.0638776E-2,-5.7312567E-2,-6.5389746E-3,-5.11215E-2,-6.012808E-2,9.619983E-2,-5.4891992E-2,-2.1120416E-2,7.673579E-2,-5.910362E-2,-5.9248406E-2,-5.7589978E-2,8.14103E-2,-5.8957696E-2,-3.2301374E-2,-5.6224532E-2],"split_indices":[8,10,9,1,0,0,5,2,0,9,0,1,16,0,9,9,1,11,1,0,0,11,0,0,9,11,1,11,5,9,10,0,1,0,0,0,0,0,0,0,0,0,0,0,0,0,0,0,0,0,0],"split_type":[0,0,0,0,0,0,0,0,0,0,0,0,0,0,0,0,0,0,0,0,0,0,0,0,0,0,0,0,0,0,0,0,0,0,0,0,0,0,0,0,0,0,0,0,0,0,0,0,0,0,0],"sum_hessian":[1.0935485E6,6.171437E5,4.7640475E5,8.8695164E4,5.284485E5,4.698535E5,6.55127E3,8.482662E4,3.8685493E3,4.879535E4,4.2105812E5,4.9719565E3,1.5793138E3,6.549403E2,8.417168E4,1.5432054E4,3.3363297E4,1.1110747E4,4.0994738E5,2.3469704E1,4.948487E3,2.3410777E2,1.345206E3,8.347128E4,7.0039575E2,1.3705976E4,1.7260786E3,3.2217857E4,1.1454419E3,1.00136455E4,1.0971019E3,2.843859E5,1.2556147E5,1.8751188E1,2.1535658E2,2.1226465E2,4.8813113E2,5.0692476E3,8.636728E3,7.449771E2,9.8110156E2,3.1171457E4,1.0463989E3,5.538864E2,5.915555E2,4.107146E3,5.9064995E3,5.1162915E2,5.854728E2,2.0552307E3,1.23506234E5],"tree_param":{"num_deleted":"0","num_feature":"18","num_nodes":"51","size_leaf_vector":"1"}},{"base_weights":[-9.127284E-4,-8.9447665E-1,9.1395885E-1,-1.0968171E0,-5.044251E-1,1.0520809E0,-1.0885893E0,-1.1069006E0,4.230323E-1,1.1194003E0,-1.1290804E0,-4.072799E-1,1.1358576E0,1.6207265E0,-1.1132349E0,-1.1388755E0,-1.024882E0,-1.1528524E0,1.5536529E0,-5.6692075E-2,1.1284254E0,6.546956E-1,-1.1354549E0,-1.1157196E0,1.1158621E0,1.1323544E0,5.689601E-2,-5.73856E-2,9.971377E-2,-1.1438177E0,-3.8668373E-1,-5.6999005E-2,-7.012677E-1,3.7311894E-1,-1.0899986E0,-5.7034772E-2,-7.5033106E-2,1.3761388E-1,1.2839645E0,1.116949E0,2.0008292E0,1.9211963E0,-5.774953E-2,-1.1428509E0,-1.084199E0,-5.7005186E-2,-5.4527223E-1,-5.8024626E-2,1.1501446E0,1.1272209E0,1.137625E0,-5.815372E-2,-5.7026204E-2,2.3669858E0,-5.700895E-2,-5.706752E-2,5.6514036E-2,-5.7018705E-2,8.234979E-2,-4.392842E-2,-5.5833787E-2,-6.260394E-2,7.0741765E-2,5.4931384E-2,5.6881376E-2,1.8133004E-1,6.1011177E-2,1.0055726E-1,-5.2156594E-2,-5.7918634E-2,-5.7030458E-2,4.1868802E-2,-5.7167947E-2,4.9409863E-2,-5.7432223E-2,5.771012E-2,-5.5232227E-2,-5.5486467E-2,5.6415834E-2,-5.4823607E-2,5.6912333E-2,-5.7311486E-2,1.8857609E-1],"categories":[],"categories_nodes":[],"categories_segments":[],"categories_sizes":[],"default_left":[0,0,0,0,0,0,0,0,0,0,0,0,0,0,0,0,0,0,0,0,0,0,0,0,0,0,0,0,0,0,0,0,0,0,0,0,0,0,0,0,0,0,0,0,0,0,0,0,0,0,0,0,0,0,0,0,0,0,0,0,0,0,0,0,0,0,0,0,0,0,0,0,0,0,0,0,0,0,0,0,0,0,0],"id":28,"left_children":[1,3,5,7,9,11,13,15,17,19,21,23,25,27,29,31,33,35,37,-1,39,41,43,45,47,49,-1,-1,-1,51,53,-1,55,57,59,-1,-1,-1,61,63,65,67,-1,69,71,-1,73,-1,75,77,79,-1,-1,81,-1,-1,-1,-1,-1,-1,-1,-1,-1,-1,-1,-1,-1,-1,-1,-1,-1,-1,-1,-1,-1,-1,-1,-1,-1,-1,-1,-1,-1],"loss_changes":[8.575771E5,4.1883375E4,1.4337034E5,5.355625E3,1.838678E5,5.9283438E4,2.2349531E3,9.0896875E2,4.1063174E3,1.025375E3,1.4893125E3,2.8407684E4,1.8125E0,3.1454285E2,7.358594E2,1.1978125E2,8.865156E3,2.095459E0,4.298015E2,0E0,4.9964844E2,1.0720238E3,4.7984375E1,2.4915039E2,6.535615E2,3.09375E0,0E0,0E0,0E0,4.609375E-1,2.7837866E3,0E0,5.1042603E2,8.358951E3,5.23625E2,0E0,0E0,0E0,3.6596802E2,1.7285156E1,8.1985596E2,7.551471E1,0E0,2.40625E0,1.8733301E3,0E0,6.84615E2,0E0,7.6618164E1,2.1284375E2,1.1767969E2,0E0,0E0,1.4270798E3,0E0,0E0,0E0,0E0,0E0,0E0,0E0,0E0,0E0,0E0,0E0,0E0,0E0,0E0,0E0,0E0,0E0,0E0,0E0,0E0,0E0,0E0,0E0,0E0,0E0,0E0,0E0,0E0,0E0],"parents":[2147483647,0,0,1,1,2,2,3,3,4,4,5,5,6,6,7,7,8,8,9,9,10,10,11,11,12,12,13,13,14,14,15,15,16,16,17,17,18,18,20,20,21,21,22,22,23,23,24,24,25,25,29,29,30,30,32,32,33,33,34,34,38,38,39,39,40,40,41,41,43,43,44,44,46,46,48,48,49,49,50,50,53,53],"right_children":[2,4,6,8,10,12,14,16,18,20,22,24,26,28,30,32,34,36,38,-1,40,42,44,46,48,50,-1,-1,-1,52,54,-1,56,58,60,-1,-1,-1,62,64,66,68,-1,70,72,-1,74,-1,76,78,80,-1,-1,82,-1,-1,-1,-1,-1,-1,-1,-1,-1,-1,-1,-1,-1,-1,-1,-1,-1,-1,-1,-1,-1,-1,-1,-1,-1,-1,-1,-1,-1],"split_conditions":[3.5346E4,1E0,1.026348E0,1.426771E0,1.026348E0,1E0,-2.645573E5,1E0,1.5072861E5,0E0,8E0,1.4272336E6,3.234282E5,-2.784822E5,8.270741E6,1.3927576E6,6.142399E-4,1E0,1.5380998E0,-5.6692075E-2,3.5315E4,7.8125E-3,2.000924E6,2.3723619E5,5.14036E5,1E0,5.689601E-2,-5.73856E-2,9.971377E-2,3.9E1,1.9E1,-5.6999005E-2,1.7E1,1E0,2.4E1,-5.7034772E-2,-7.5033106E-2,1.3761388E-1,1E0,1E0,5.6966806E5,6.142399E-4,-5.774953E-2,3.9E1,2.0351362E6,-5.7005186E-2,2.4306536E5,-5.8024626E-2,6.711336E5,1E0,1.118E1,-5.815372E-2,-5.7026204E-2,1.8E1,-5.700895E-2,-5.706752E-2,5.6514036E-2,-5.7018705E-2,8.234979E-2,-4.392842E-2,-5.5833787E-2,-6.260394E-2,7.0741765E-2,5.4931384E-2,5.6881376E-2,1.8133004E-1,6.1011177E-2,1.0055726E-1,-5.2156594E-2,-5.7918634E-2,-5.7030458E-2,4.1868802E-2,-5.7167947E-2,4.9409863E-2,-5.7432223E-2,5.771012E-2,-5.5232227E-2,-5.5486467E-2,5.6415834E-2,-5.4823607E-2,5.6912333E-2,-5.7311486E-2,1.8857609E-1],"split_indices":[6,10,10,11,10,10,7,15,5,6,0,2,2,7,5,9,11,12,11,0,2,9,5,9,9,14,0,0,0,0,0,0,17,12,0,0,0,0,15,14,2,11,0,0,5,0,9,0,5,15,9,0,0,0,0,0,0,0,0,0,0,0,0,0,0,0,0,0,0,0,0,0,0,0,0,0,0,0,0,0,0,0,0],"split_type":[0,0,0,0,0,0,0,0,0,0,0,0,0,0,0,0,0,0,0,0,0,0,0,0,0,0,0,0,0,0,0,0,0,0,0,0,0,0,0,0,0,0,0,0,0,0,0,0,0,0,0,0,0,0,0,0,0,0,0,0,0,0,0,0,0,0,0,0,0,0,0,0,0,0,0,0,0,0,0,0,0,0,0],"sum_hessian":[1.0490269E6,5.306935E5,5.1833334E5,3.4942575E5,1.8126775E5,4.848895E5,3.344382E4,3.471231E5,2.3026553E3,5.0358125E4,1.30909625E5,2.6324309E4,4.585652E5,3.0086166E2,3.3142957E4,2.4974566E5,